le_net5/conv2d/kernel:0
(5, 5, 3, 6)
[[[[ 4.46666591e-02  3.52779061e-01  7.65027329e-02 -1.97820496e-02
    -3.26864600e-01 -1.05832621e-01]
   [ 1.92706063e-01  1.24766380e-01  4.05051671e-02  5.07442504e-02
     1.91444352e-01  9.65692550e-02]
   [ 2.30671823e-01  3.68956774e-01  5.57364076e-02  3.23721468e-01
     2.81641930e-01  2.92701251e-03]]

  [[ 4.73943986e-02  3.58696729e-01 -1.49594024e-02 -2.52829045e-01
    -1.09945156e-01 -8.43390450e-02]
   [ 1.69444587e-02  8.51378068e-02  9.06645507e-03  1.50012672e-01
    -5.85466959e-02  1.42993748e-01]
   [ 4.14622396e-01  2.21307412e-01 -2.59536356e-01  3.24055672e-01
     3.63419235e-01 -3.59414378e-03]]

  [[-1.05920024e-01  3.94819975e-01 -6.38283789e-02 -2.92032689e-01
    -3.24052662e-01 -6.38945028e-02]
   [ 2.28557751e-01  1.47525325e-01  1.21615581e-01  1.83631465e-01
     1.40171260e-01  1.08063631e-01]
   [ 2.55820006e-01  5.46234965e-01 -1.78072006e-01  4.28169459e-01
     3.57518554e-01 -1.70342669e-01]]

  [[ 2.23953761e-02  2.58312941e-01  3.89987789e-02 -2.49741584e-01
    -3.41497511e-01 -3.22360009e-01]
   [ 1.30597623e-02  1.39134467e-01  8.05061385e-02  1.17137820e-01
     1.35777518e-01 -2.93054789e-01]
   [ 3.88073266e-01  4.70828414e-01 -3.91006842e-03  3.72870535e-01
     3.58444482e-01 -4.06501472e-01]]

  [[ 1.55585911e-02  4.18708265e-01 -1.70382127e-01 -2.73372710e-01
    -2.77990222e-01 -1.11929551e-02]
   [ 1.95525900e-01  2.90067941e-01 -1.66071624e-01  1.80736318e-01
     1.09136991e-01  4.63734083e-02]
   [ 1.60368621e-01  3.40397686e-01 -1.59804389e-01  4.36659992e-01
     3.30019981e-01  4.12211344e-02]]]


 [[[-2.67629564e-01  3.40765089e-01  8.86882618e-02 -2.51476824e-01
    -1.95736155e-01 -1.41872987e-01]
   [ 1.40770078e-01  2.30858177e-01  3.44023257e-02 -1.35787800e-01
    -7.26237893e-02  1.04473881e-01]
   [ 2.79434949e-01  3.78229469e-01  1.04474336e-01  2.52742022e-01
     3.03728431e-01 -1.06225815e-02]]

  [[-2.02135354e-01  3.45437914e-01 -2.46944390e-02 -3.11068177e-01
    -1.51612416e-01 -6.19524308e-02]
   [ 8.06058720e-02  1.90788418e-01  3.46950931e-03  6.58476204e-02
    -1.61217153e-02  1.37944473e-02]
   [ 3.01198661e-01  3.62712622e-01 -2.23848581e-01  2.84892946e-01
     1.91171259e-01  1.17897786e-01]]

  [[-7.44343270e-03  1.88617423e-01 -1.21754028e-01 -1.10198013e-01
    -1.90037385e-01  4.49793302e-02]
   [-1.12020597e-02  5.19892492e-05  1.70600936e-01 -1.60119697e-01
     4.98728082e-02 -4.25719880e-02]
   [ 2.72393763e-01  2.56870002e-01 -1.63800403e-01  3.67688686e-01
     1.11131310e-01 -1.36232540e-01]]

  [[ 6.36012061e-04  3.00674856e-01 -6.21007849e-03 -3.71605784e-01
    -2.64813811e-01 -2.15961650e-01]
   [-3.48755866e-02  2.14894544e-02  1.40285522e-01  1.03298873e-01
     6.19393252e-02 -2.16956764e-01]
   [ 1.55745983e-01  4.01176870e-01 -3.41125652e-02  2.14377820e-01
     2.55413473e-01 -3.15059781e-01]]

  [[-1.78716898e-01  7.21729919e-02 -1.88048393e-01 -1.98421672e-01
    -3.08014601e-01  1.74583271e-02]
   [-4.57422771e-02 -3.33447978e-02  4.33668457e-02 -1.18424907e-01
     6.40932694e-02  1.73531085e-01]
   [ 2.69695580e-01  2.10757658e-01 -2.47594744e-01  1.82163030e-01
     1.10578671e-01  5.05287424e-02]]]


 [[[-8.85540023e-02  1.11545406e-01  1.76285416e-01 -3.81574512e-01
    -3.25947821e-01  1.12551693e-02]
   [-1.85976893e-01 -2.73034543e-01  2.24221691e-01 -1.00965612e-01
    -5.40116206e-02  2.01372430e-02]
   [ 3.19086730e-01  1.42000422e-01 -2.40663309e-02  3.06894898e-01
     1.26757428e-01  1.48493648e-01]]

  [[-2.15744060e-02 -9.79324207e-02 -1.25343770e-01 -3.86093229e-01
    -3.66795927e-01  5.47412559e-02]
   [-8.96989368e-03 -7.90227279e-02  8.81161764e-02 -2.01487347e-01
     2.16520578e-02 -1.10523380e-01]
   [ 3.00178468e-01 -8.23295675e-03  4.48241867e-02  3.62339020e-01
     3.53112936e-01 -2.07627669e-01]]

  [[-1.98767439e-01  7.66314426e-03 -2.49909177e-01 -4.01392490e-01
    -2.09621042e-01 -2.34246030e-01]
   [-1.17175663e-02 -1.90058678e-01  1.36900306e-01 -1.14154339e-01
     7.08855912e-02 -1.16921023e-01]
   [ 2.59033740e-01 -2.12788396e-02 -7.99073651e-03  3.21082957e-02
     2.13357601e-02 -2.41000012e-01]]

  [[-2.23029658e-01 -5.41519001e-02 -1.39964476e-01 -3.38463515e-01
    -3.64136338e-01 -3.54627930e-02]
   [ 7.68754333e-02 -1.25490218e-01  3.34833749e-02 -1.08164944e-01
     8.11816901e-02  1.17935143e-01]
   [ 2.84852207e-01  2.86752377e-02 -5.75270019e-02  2.43785217e-01
     3.00634474e-01 -2.11286634e-01]]

  [[-2.29980871e-01  3.73747684e-02 -1.18970178e-01 -3.50046247e-01
    -1.40165761e-01  9.36642811e-02]
   [-7.24956989e-02 -1.85162216e-01 -7.27833509e-02  9.46213957e-03
    -1.46753043e-01  1.88983232e-01]
   [ 2.81446427e-01  4.39037420e-02 -3.44287515e-01  1.15080215e-01
     3.64240855e-01  1.29366472e-01]]]


 [[[-1.79211721e-01 -2.34259635e-01  9.73573774e-02 -3.56871873e-01
    -2.38198325e-01 -1.95134848e-01]
   [-1.88054964e-01 -3.87712687e-01  2.86843032e-01 -1.09646477e-01
    -1.02298662e-01 -8.27394202e-02]
   [ 2.67323613e-01 -1.33762211e-01  1.06216103e-01  3.77867252e-01
     2.86412388e-01 -1.42885834e-01]]

  [[-7.88848326e-02 -2.41965413e-01  1.15883395e-01 -3.67260039e-01
    -3.52869689e-01  9.66346338e-02]
   [-1.04484372e-01 -5.74270844e-01  5.85464388e-02 -9.81823802e-02
     4.77695279e-02  1.51600748e-01]
   [ 2.98008800e-01 -2.74069816e-01  1.37000801e-02  2.47554034e-01
     1.53823476e-02 -1.09137096e-01]]

  [[ 1.31350020e-02 -3.83960187e-01 -1.14110142e-01 -2.76718169e-01
    -4.91918981e-01 -2.45046988e-01]
   [-1.53204665e-01 -5.22435904e-01  5.71686029e-02 -1.57930646e-02
     2.67155725e-03 -1.55016720e-01]
   [ 9.40585062e-02 -1.83261350e-01 -2.32407346e-01  3.69187027e-01
     2.75679618e-01 -2.54255772e-01]]

  [[-2.62524843e-01 -3.18521231e-01 -3.62136737e-02 -2.41813019e-01
    -3.36433232e-01 -1.51614472e-01]
   [ 7.27342889e-02 -4.54609334e-01  1.58421934e-01 -1.90508917e-01
    -1.37538105e-01  7.87892714e-02]
   [ 3.15037727e-01 -3.89364243e-01 -2.02677518e-01  3.29812169e-01
     3.25845592e-02 -5.67219183e-02]]

  [[-1.97950855e-01 -1.94850236e-01 -3.47593814e-01 -2.95117170e-01
    -4.09522921e-01  2.96751149e-02]
   [ 1.30680960e-03 -4.38040912e-01 -6.70071617e-02  1.01693071e-01
    -6.05314076e-02  3.59611809e-01]
   [ 1.11310624e-01 -2.27739602e-01 -3.28494698e-01  2.45332971e-01
     7.01301619e-02  1.13674469e-01]]]


 [[[-2.73843944e-01 -3.24896157e-01  1.96085796e-01 -1.72539249e-01
    -1.62090868e-01 -1.70620024e-01]
   [-7.70963728e-02 -3.90014380e-01  3.18095595e-01 -2.28767935e-02
    -2.68092006e-01 -1.02928117e-01]
   [ 1.70215651e-01 -2.46954739e-01  9.62583721e-02  1.07831657e-01
     2.37438679e-01 -1.95628941e-01]]

  [[-1.32310152e-01 -3.88647616e-01 -1.67879507e-01 -2.75213003e-01
    -4.01104718e-01  4.37692776e-02]
   [-1.40305936e-01 -6.45483911e-01 -1.79945938e-02 -1.17530383e-01
    -4.46259603e-02 -8.86348635e-03]
   [ 1.06690608e-01 -2.11698353e-01 -2.26607360e-02  3.35674137e-01
     2.34556422e-01 -1.07196376e-01]]

  [[-1.44900769e-01 -2.77039111e-01 -3.11532557e-01 -2.77285010e-01
    -1.79007798e-01 -1.71040475e-01]
   [-1.36553988e-01 -5.77232718e-01  5.17931953e-02 -2.42353678e-02
    -2.77073979e-01 -4.98849340e-02]
   [ 3.09069544e-01 -4.34338659e-01 -3.47992897e-01  1.19449571e-01
     2.36768439e-01 -6.09560460e-02]]

  [[-3.07009131e-01 -3.38114798e-01 -2.05989495e-01 -3.91917855e-01
    -3.54494661e-01 -3.46343853e-02]
   [ 1.26470951e-02 -5.65709174e-01  1.06426748e-02 -1.25081256e-01
     1.29998066e-02  2.22728983e-01]
   [ 7.06591085e-02 -3.86039525e-01 -1.57308578e-01  3.92329276e-01
     2.73535848e-01 -5.22885323e-02]]

  [[-1.01135038e-01 -3.02949101e-01 -2.74184227e-01 -2.92994380e-01
    -2.08941936e-01  2.83223875e-02]
   [-3.90980579e-03 -6.42359078e-01  3.71884145e-02 -1.10190891e-01
    -3.56885344e-02  1.42841101e-01]
   [-5.57499081e-02 -7.36557022e-02 -8.06250498e-02  2.10395634e-01
     9.12610143e-02  1.75570026e-01]]]]
le_net5/conv2d/bias:0
(6,)
[-0.22353144 -0.20944461  0.20358548 -0.1692325  -0.1894383   0.2351343 ]
le_net5/conv2d_1/kernel:0
(5, 5, 6, 16)
[[[[ 1.89794619e-02 -1.49008036e-01 -2.83741623e-01 -1.27058938e-01
     1.45589998e-02  6.71903184e-03  1.77992303e-02 -7.02719837e-02
    -2.56476730e-01  8.46610367e-02 -3.72238815e-01 -8.74208957e-02
    -2.18792275e-01 -2.42353380e-01  1.54883221e-01  6.52534813e-02]
   [ 1.18142419e-01 -3.69746298e-01  7.08725005e-02 -1.23600245e-01
    -4.05226678e-01  1.36484951e-01 -3.16556007e-01  1.75767362e-01
     2.31328383e-01  4.11092713e-02  1.76395979e-02  1.12847432e-01
     1.45325670e-02 -1.89892292e-01  5.07645547e-01 -4.10838127e-01]
   [-2.20973611e-01 -4.99115661e-02  4.15834179e-03  1.40245348e-01
    -8.39978755e-02 -2.82703966e-01 -1.19401582e-01  3.22697163e-01
     2.88879067e-01  2.63806611e-01 -2.01898720e-02  5.92841208e-01
     5.36197186e-01  2.12377543e-03 -1.69255435e-01  9.83058810e-02]
   [-1.44421039e-02 -2.88832814e-01 -5.48595846e-01 -2.18620211e-01
    -3.63980770e-01  1.44969821e-01  6.00054525e-02  2.51833834e-02
    -1.15590833e-01 -1.51368231e-01 -3.49909604e-01  7.91024119e-02
     8.50050077e-02 -5.54977179e-01  8.22899714e-02 -2.45880634e-01]
   [ 2.46352907e-02 -3.66009623e-01 -5.52770436e-01 -1.93907589e-01
    -2.35752419e-01  2.08691031e-01  7.51437247e-02 -7.15981349e-02
    -1.52085304e-01 -2.14059398e-01 -2.46287793e-01 -1.03634661e-02
     4.29956168e-02 -6.52727723e-01  1.81526691e-01 -1.71480179e-01]
   [-2.80257493e-01  9.06015635e-02 -4.98544052e-03  9.85212848e-02
    -2.01026395e-01 -1.85238287e-01  1.33781359e-01  2.77842999e-01
     2.84129620e-01 -4.25980277e-02 -1.80734321e-01  5.53267777e-01
     2.81514406e-01  2.18921244e-01 -2.17606723e-01 -6.67826384e-02]]

  [[ 6.51280507e-02 -5.69235161e-02 -3.02438378e-01 -3.59304994e-02
     7.26320818e-02 -1.30076380e-02  1.00132093e-01 -1.29172400e-01
    -1.63442612e-01 -3.85169350e-02 -2.69826680e-01 -2.16181681e-01
    -2.21679673e-01 -1.83930531e-01  1.30195066e-01  9.70424861e-02]
   [ 4.41676527e-02 -4.42335546e-01  9.86767486e-02 -1.33157685e-01
    -4.11107987e-01  2.68714070e-01 -4.43671793e-01  2.14952789e-02
     3.56023818e-01  7.47439340e-02  2.32498758e-02  8.86189938e-02
     6.69235438e-02 -3.78669858e-01  5.26634991e-01 -5.38519859e-01]
   [-3.16705555e-01  9.30049717e-02 -6.47120401e-02  3.24246466e-01
    -8.04169327e-02 -1.45810977e-01 -2.79026985e-01  2.29746252e-01
     2.14200124e-01  1.18073203e-01 -1.23244248e-01  3.33217442e-01
     3.93887550e-01 -6.35659471e-02 -3.73759001e-01  1.04008026e-01]
   [-4.09830222e-03 -3.30795676e-01 -4.39562559e-01 -2.11461946e-01
    -2.72784948e-01  1.37098968e-01 -4.45021084e-03 -1.06879286e-01
    -1.64378032e-01 -2.76869625e-01 -3.19049031e-01  3.54143940e-02
    -2.34502815e-02 -5.70667386e-01  2.68420607e-01 -1.83679715e-01]
   [-8.08862373e-02 -5.01747906e-01 -4.42582160e-01 -3.16039830e-01
    -1.37274027e-01  2.04381511e-01 -2.53628544e-03 -1.53248668e-01
    -1.66220814e-01 -3.79072934e-01 -3.87287140e-01  1.15294188e-01
     1.67870894e-05 -6.63746357e-01  1.53176859e-01 -6.11197054e-02]
   [-1.82820365e-01  6.73751980e-02  8.16584304e-02  5.76386191e-02
    -5.19084148e-02 -2.97913194e-01 -5.63580431e-02  3.37547690e-01
     4.06894594e-01  1.35104880e-01 -1.15631104e-01  4.85778511e-01
     3.65489900e-01  3.53148431e-02 -3.89629543e-01 -8.17195550e-02]]

  [[ 1.46705387e-02 -3.09327040e-02 -1.77668571e-01 -8.81970003e-02
     1.37378350e-01  8.68996326e-03  1.51286125e-01 -2.94469953e-01
    -1.80672139e-01 -2.49415524e-02 -3.38421404e-01 -2.22295791e-01
    -1.03443526e-01 -3.09158891e-01  6.95241541e-02 -2.37673912e-02]
   [-3.06720939e-02 -1.92686975e-01  2.14473512e-02  5.42272255e-02
    -5.42018056e-01  1.89322114e-01 -5.85443735e-01  1.38740437e-02
     1.92446679e-01 -1.81233734e-01  2.48604253e-01  2.80501116e-02
     2.22166643e-01 -4.80489314e-01  4.59163517e-01 -5.44754684e-01]
   [-3.18270981e-01  3.01771373e-01 -7.87519515e-02  3.03380013e-01
    -2.88499910e-02 -1.78204954e-01 -2.50387758e-01  1.44403666e-01
     1.54404074e-01 -7.97693357e-02 -2.22594827e-01  2.62964249e-01
     4.21599805e-01 -1.15007155e-01 -3.61706167e-01  7.38318020e-04]
   [ 3.04844119e-02 -3.58655035e-01 -5.33962429e-01 -2.81952024e-01
    -3.17910135e-01  1.02844276e-01 -1.38353080e-01 -3.39598924e-01
    -3.10033798e-01 -4.85325336e-01 -4.26286906e-01 -7.94222876e-02
     1.17581137e-01 -5.67802250e-01  2.17532247e-01 -2.64262259e-01]
   [-1.31507933e-01 -4.33445871e-01 -4.21723157e-01 -2.67828763e-01
    -2.49493986e-01  1.67183936e-01 -1.24695688e-01 -4.20333922e-01
    -2.84489006e-01 -3.20754439e-01 -3.16263199e-01  1.22391522e-01
     9.51530710e-02 -4.67302918e-01  8.98048952e-02 -4.19934765e-02]
   [-3.37552637e-01  4.77669276e-02 -9.44768786e-02  1.28135592e-01
    -2.39045009e-01 -2.80457526e-01 -1.00738376e-01  2.32389286e-01
     2.64196694e-01  1.62046760e-01 -2.69063979e-01  4.50589657e-01
     2.06147864e-01  3.94907817e-02 -3.15655261e-01 -1.24866702e-02]]

  [[ 9.17538553e-02 -1.10053368e-01 -2.89018542e-01 -1.47195071e-01
     2.57758498e-01 -4.01448943e-02  1.00770868e-01 -1.56879067e-01
    -3.24559301e-01 -8.78120065e-02 -2.61871278e-01 -1.11085050e-01
    -2.74201930e-01 -1.24953650e-01  2.22189084e-01 -3.59846726e-02]
   [-3.06243468e-02  1.69121131e-01  2.23271661e-02  1.47483602e-01
    -5.91504931e-01  3.36644292e-01 -4.79146421e-01 -1.94477234e-02
     1.03039891e-01 -1.74378768e-01  1.90269917e-01  8.43291730e-02
     2.45862603e-01 -4.03067857e-01  5.75285912e-01 -4.01441813e-01]
   [-3.02175075e-01  4.18129832e-01  2.65036169e-02  3.36290568e-01
    -5.86145781e-02 -1.37154281e-01 -1.65136263e-01  1.20177500e-01
     2.41672203e-01  1.68981448e-01  5.66871390e-02  2.15338081e-01
     3.87732714e-01  3.00790444e-02 -1.66735098e-01  3.97996083e-02]
   [-2.57455111e-02 -1.58336684e-01 -6.22032464e-01 -1.73049137e-01
    -2.91889966e-01  5.74780852e-02 -1.56157807e-01 -3.18907797e-01
    -3.03450823e-01 -2.94917911e-01 -1.63244277e-01 -8.42676908e-02
     1.80353388e-01 -5.98641217e-01  1.63726509e-01 -8.03602487e-02]
   [-1.46425143e-01 -1.11020461e-01 -4.68977183e-01 -1.83575138e-01
    -2.44435832e-01  1.26755580e-01 -5.40337376e-02 -3.40838939e-01
    -1.69829190e-01 -4.37613577e-01 -2.77641177e-01 -1.64977070e-02
     1.48608863e-01 -6.30453885e-01  2.80856818e-01  1.42071070e-02]
   [-2.79884458e-01  1.60478383e-01 -7.77858049e-02  2.54622728e-01
    -1.83746666e-01 -2.30099708e-01 -1.44587129e-01  2.89715137e-02
     2.13295758e-01 -1.66539028e-01 -1.06984831e-01  4.87433404e-01
     5.28984785e-01 -7.76432529e-02 -3.14213455e-01 -1.13574509e-02]]

  [[-1.69995911e-02 -8.96029919e-02 -2.56245852e-01 -1.29637584e-01
     2.06831917e-01 -6.73919544e-02  1.04459122e-01 -1.95934355e-01
    -1.85869187e-01 -1.10965975e-01 -8.53654891e-02 -1.99245661e-01
    -1.79178178e-01 -1.29062235e-01  1.21004947e-01  3.84224020e-02]
   [ 1.64946839e-02  3.19309056e-01  7.93901011e-02  3.25627103e-02
    -3.57293278e-01  2.00669691e-01 -4.37756747e-01 -1.82876848e-02
     1.15087114e-01  7.88952559e-02  4.42206293e-01 -9.07588601e-02
    -4.24644165e-02 -4.94438827e-01  5.75705290e-01 -4.42105532e-01]
   [-2.96066225e-01  4.02000248e-01  1.15094455e-02 -2.16376148e-02
    -9.58537012e-02 -1.98182479e-01  5.44366278e-02  2.47061905e-02
     2.06541792e-01  1.51470587e-01  6.39994144e-02  3.12311947e-01
     9.90324616e-02  3.48962136e-02 -2.30655283e-01  4.12607826e-02]
   [-8.95569548e-02 -4.96292040e-02 -4.27781314e-01 -1.73431426e-01
    -1.72589302e-01  1.81418180e-01 -8.12207833e-02 -2.53812999e-01
    -3.46187234e-01 -3.36731613e-01 -1.13393508e-01 -3.96821089e-02
     1.35817006e-03 -6.81608975e-01  2.35370904e-01 -1.35518938e-01]
   [ 3.37787978e-02 -4.43883874e-02 -3.71426195e-01 -1.20580688e-01
    -2.11224094e-01  3.88362445e-02 -8.16482753e-02 -3.81861001e-01
    -2.87154317e-01 -3.67829204e-01 -1.82524592e-01 -5.00093736e-02
    -4.58855974e-03 -6.21204972e-01  1.58270329e-01  2.30758917e-02]
   [-2.51046836e-01  7.45026320e-02  8.79896879e-02  2.87247211e-01
    -1.37575820e-01 -9.13763270e-02 -2.11535990e-01 -8.67699310e-02
     3.10629308e-01 -1.03211328e-01 -1.69746250e-01  4.69034076e-01
     6.20607674e-01  9.05457139e-03 -3.87702972e-01 -3.37473699e-03]]]


 [[[ 1.70218423e-01  9.14409906e-02 -3.14875454e-01  7.04653189e-02
     2.11373344e-01  7.32010156e-02  1.53883502e-01  2.15112921e-02
    -1.23301810e-02  5.47540188e-02 -1.20573610e-01 -2.00059250e-01
    -1.53668923e-02 -1.88630953e-01  6.97461367e-02  9.62916911e-02]
   [ 8.17478448e-02 -1.89450130e-01  3.51083696e-01 -2.03365847e-01
    -4.60649580e-01 -3.50614265e-03 -2.07679018e-01  1.48315832e-01
     1.96311310e-01 -4.07272018e-02  7.81408772e-02  3.13168764e-02
    -1.72002614e-01  1.72166198e-01  2.63331771e-01 -5.79638124e-01]
   [-2.25919738e-01 -6.54348135e-02  2.33190730e-02  1.67310953e-01
     9.30404663e-02 -1.27926469e-01 -3.35956141e-02  3.73951942e-01
     3.32036138e-01  2.76045233e-01  8.30659568e-02  5.04168928e-01
     4.01141196e-01  6.37347251e-02 -2.80187786e-01  2.44370531e-02]
   [ 1.55467438e-02 -2.59547174e-01 -6.22513235e-01 -1.71724558e-01
    -1.29148513e-01  8.07740614e-02  1.63594097e-01  8.88416693e-02
    -6.55443147e-02 -6.61430806e-02 -3.23758781e-01 -2.59753615e-02
     3.95479128e-02 -3.40496570e-01  1.57219216e-01 -3.87861915e-02]
   [-3.47553194e-02 -2.00418189e-01 -5.68211973e-01 -1.35060221e-01
    -8.49033743e-02  6.44248426e-02  1.86122179e-01  1.30287394e-01
    -4.94341701e-02 -8.66304152e-03 -3.33846837e-01  1.56422868e-01
    -4.79581729e-02 -4.07738775e-01  9.84790549e-02  4.66090329e-02]
   [-1.80060416e-01 -7.01225922e-02  3.37742828e-02  6.44096136e-02
    -1.74411368e-02 -1.13726728e-01  1.60177246e-01  3.59211326e-01
     2.52721936e-01  2.44996659e-02 -8.19089189e-02  3.83832961e-01
     2.51477957e-01 -1.23819988e-02 -3.16921920e-01 -6.32996187e-02]]

  [[ 4.58564283e-03  1.96274459e-01 -2.81352997e-01 -4.01041331e-03
     9.49305668e-02  8.44792202e-02  1.76202744e-01 -1.18033759e-01
    -1.56177998e-01  1.73708741e-02 -2.75048494e-01 -1.29119635e-01
    -1.07899107e-01 -7.93132409e-02 -1.42886024e-03  3.49108614e-02]
   [-1.55077577e-02 -4.98106003e-01  3.62151474e-01 -2.05506504e-01
    -6.69133127e-01 -6.32622167e-02 -4.82806861e-01  6.11683428e-02
     2.14873925e-01 -2.03984141e-01  2.04814643e-01  1.83718260e-02
    -1.77266411e-02  1.65495932e-01  1.61859274e-01 -6.25756681e-01]
   [-3.78828764e-01 -1.16161585e-01  1.17065378e-01  1.41851932e-01
     1.31784245e-01 -1.25491753e-01 -9.75594148e-02  3.00487310e-01
     7.95714781e-02  5.44568971e-02 -1.22170486e-01  3.03407341e-01
     3.92774940e-01  5.04516922e-02 -1.83775425e-01 -1.61732808e-02]
   [-3.21914889e-02 -1.50673449e-01 -6.04292393e-01 -1.12567760e-01
     4.06419300e-02  6.66401610e-02  1.20128514e-02 -5.93919680e-02
    -1.47824967e-02 -2.25609571e-01 -2.35173106e-01  1.40845090e-01
     2.08712474e-01 -3.94581646e-01  3.39546148e-03 -8.33553746e-02]
   [ 6.74904464e-03 -2.98965394e-01 -5.74005485e-01 -9.13495272e-02
     1.28291264e-01 -5.68188876e-02  1.17486008e-01  7.78084330e-04
    -1.03502639e-01 -1.58267021e-01 -3.14398021e-01 -1.94813367e-02
     1.04834596e-02 -3.73013437e-01  6.73832148e-02  7.44055584e-02]
   [-2.57312626e-01 -2.40079924e-01  3.20744328e-02  8.30255449e-02
    -7.43339211e-02 -1.86033785e-01 -3.47109586e-02  2.78200090e-01
     3.02639097e-01  2.80348748e-01 -4.35640998e-02  5.41500866e-01
     2.77052850e-01 -4.80001234e-02 -3.39674920e-01  8.93509313e-02]]

  [[ 7.79379457e-02  1.01677328e-01 -1.92030594e-01 -1.38826922e-01
     2.99888134e-01 -5.79283014e-02  1.67918742e-01 -1.14966005e-01
    -1.51170596e-01 -1.21083446e-02 -1.34789541e-01 -1.80214286e-01
    -4.56503183e-02 -1.27771422e-01  8.22448805e-02  6.48184344e-02]
   [ 7.92300850e-02 -3.80412966e-01  3.30215663e-01 -1.88410386e-01
    -5.36772192e-01 -8.18330646e-02 -4.60400105e-01 -3.29443216e-01
     3.81397605e-01 -4.62178677e-01  2.90178865e-01  2.09894001e-01
     2.91436255e-01  4.52797227e-02  2.45153904e-01 -5.01983881e-01]
   [-3.71102959e-01  1.63241774e-01  7.80280605e-02  2.86248624e-01
    -6.20609261e-02 -3.14812243e-01 -1.24149591e-01  6.02800623e-02
     5.69312274e-02  3.62313446e-03 -1.10405125e-01  2.21440256e-01
     3.35044622e-01 -3.52312401e-02 -2.63453871e-01  1.44883841e-01]
   [-5.52804470e-02 -3.16409379e-01 -4.99407917e-01 -1.93850830e-01
     4.96708304e-02  4.72130887e-02 -1.30839333e-01 -2.87670761e-01
    -9.11881402e-02 -1.99326947e-01 -1.62854582e-01  7.70670548e-02
     1.30638778e-01 -2.32167065e-01  4.64568846e-02  4.72790822e-02]
   [-8.11615735e-02 -2.49389797e-01 -4.79610085e-01 -6.35062829e-02
     4.90408316e-02 -4.26625870e-02 -9.89637598e-02 -2.15207025e-01
    -1.77550554e-01 -1.51490554e-01 -2.42517263e-01  6.27291426e-02
     1.34237543e-01 -1.82738319e-01 -2.56344900e-02  1.13395907e-01]
   [-2.58923411e-01 -1.03443693e-02 -1.09146923e-01  1.71741664e-01
    -8.95846635e-02 -1.85944363e-01 -2.47980133e-01  2.70025492e-01
     8.68717507e-02  1.47717707e-02 -1.07340485e-01  2.65822321e-01
     4.13331151e-01 -1.80693060e-01 -2.45208696e-01 -7.97836408e-02]]

  [[ 1.01661481e-01 -1.53044108e-02 -3.09183508e-01 -1.61114465e-02
     2.31326073e-01 -8.47325176e-02  1.92738593e-01 -9.05134380e-02
    -2.02170849e-01 -3.03417053e-02 -2.42407948e-01 -2.42937710e-02
    -9.50353742e-02 -6.39423132e-02  1.33780211e-01  4.17053699e-03]
   [-5.25945723e-02 -1.59388110e-01  1.97633028e-01  7.59479031e-02
    -5.36434352e-01 -6.78959414e-02 -4.97489363e-01 -1.36205509e-01
     2.34598354e-01 -3.45310599e-01  3.26121956e-01  1.18137769e-01
     2.08711609e-01  2.17283051e-02  2.90876746e-01 -4.28126156e-01]
   [-2.19622016e-01  3.43742996e-01  9.38948765e-02  3.45387161e-01
     1.32634372e-01 -1.86757952e-01 -1.88399181e-01  3.85837592e-02
     1.80722624e-01  6.15098961e-02  1.77944452e-02  1.89479083e-01
     1.44049123e-01  7.23748356e-02 -1.65138364e-01  5.36006782e-03]
   [-1.77925453e-01 -1.84317268e-02 -5.99581003e-01 -6.52348623e-02
     5.90534359e-02 -1.08331814e-02 -1.19039081e-01 -2.79500544e-01
    -7.62461871e-02 -2.51135707e-01 -1.31255060e-01  6.84319297e-03
     8.55419487e-02 -2.48010039e-01  1.23099186e-01 -1.41857713e-02]
   [-1.84875801e-01 -1.18756361e-01 -4.92939055e-01 -1.90996826e-01
     7.09456727e-02  6.43231487e-03  3.34506184e-02 -2.91916430e-01
    -7.87311420e-02 -1.35354102e-01 -9.58045349e-02 -2.31783763e-02
     5.14976587e-03 -2.08626568e-01  2.38257833e-02  5.48946671e-02]
   [-3.55040342e-01  3.33353761e-03  5.20238429e-02  3.61179501e-01
    -9.95143354e-02 -9.72386748e-02 -2.51717508e-01  7.18222111e-02
     2.14716792e-01 -5.86683936e-02 -2.52209995e-02  4.48441803e-01
     5.50087750e-01 -3.56042907e-02 -3.09020281e-01  3.76253612e-02]]

  [[-3.12310848e-02 -1.30478591e-02 -3.03443164e-01  5.68371117e-02
     2.53364265e-01 -9.21657905e-02  1.63517177e-01 -1.02393307e-01
    -2.10932255e-01  1.08614549e-01 -1.28165647e-01 -1.46675780e-01
    -9.55225527e-02 -2.67241653e-02  1.17454723e-01  1.68921649e-01]
   [-2.35313606e-02  2.94305772e-01  3.37933302e-01  1.65825170e-02
    -4.52248633e-01  1.90710742e-02 -4.13995206e-01 -1.42345533e-01
    -8.96986574e-02 -3.85617614e-02  6.13448083e-01 -1.35793105e-01
    -2.33753398e-01 -4.56855670e-02  4.30518419e-01 -4.52082247e-01]
   [-2.17595011e-01  2.84762889e-01  1.63456544e-01  9.04787928e-02
     1.10585485e-02 -2.29187891e-01  6.63193166e-02 -2.52617840e-02
     1.24957211e-01  1.93689689e-01  2.03677475e-01  8.10542926e-02
    -6.76687136e-02 -7.92013258e-02 -1.59075662e-01  5.54783083e-02]
   [-9.92090255e-02  2.63643041e-02 -5.12948275e-01  2.02239566e-02
     1.06599666e-02 -1.08186074e-01 -1.68304965e-01 -9.63661224e-02
    -1.61197856e-01 -8.23045745e-02  3.74026150e-02 -1.40348986e-01
     2.65657026e-02 -3.73668134e-01  1.82156563e-01  4.80547510e-02]
   [-3.16830073e-03  9.46283713e-02 -4.61835682e-01 -1.53123856e-01
     9.17738229e-02 -9.63484719e-02 -6.81902915e-02 -1.42361090e-01
    -3.12246352e-01 -2.24386111e-01  1.08079202e-02 -1.04846343e-01
    -1.04127213e-01 -2.79524535e-01  1.78432181e-01  4.14103409e-03]
   [-2.35415131e-01  1.06636487e-01 -5.01964204e-02  3.23259681e-01
    -2.99350433e-02 -1.51405483e-01 -2.43565142e-01  4.72916141e-02
     3.76793504e-01 -3.94463949e-02  1.37388125e-01  3.63296062e-01
     3.04056793e-01 -1.63286135e-01 -2.32759088e-01 -1.00749955e-01]]]


 [[[ 1.68320477e-01  1.77603245e-01 -3.23353767e-01 -7.74838552e-02
     3.13332677e-02 -5.10436743e-02  1.25347078e-01 -8.65313113e-02
    -1.14667736e-01 -5.83179630e-02 -1.62159726e-01 -3.56492363e-02
     2.92865373e-03  7.98929855e-03  9.61632878e-02 -1.84906442e-02]
   [ 4.73242067e-02 -2.47320771e-01  3.29288751e-01 -2.13240430e-01
    -3.15512747e-01  3.30956955e-03 -3.31714571e-01  6.76051974e-02
     9.66808796e-02 -2.91155130e-01  9.17926729e-02  1.80690825e-01
     1.75584659e-01  4.67635281e-02  2.30375677e-01 -6.60191894e-01]
   [-3.67522001e-01 -2.47298196e-01  8.71679857e-02  1.34124696e-01
     2.53139496e-01 -2.68719524e-01  1.31820366e-02  3.22670817e-01
     2.53559023e-01  2.61582583e-01  1.53236911e-01  4.62073714e-01
     3.60600829e-01  1.61827579e-02 -2.34315485e-01  2.14654565e-01]
   [-2.29242891e-02 -1.24260597e-01 -2.67358720e-01 -1.37352973e-01
    -4.39445414e-02  8.46947357e-02  1.57060713e-01  4.34758328e-02
     1.28273696e-01 -1.76211491e-01 -2.71636724e-01 -5.14308773e-02
     1.24854729e-01 -1.94963589e-01 -1.52434200e-01 -1.30112574e-01]
   [-8.11623111e-02 -1.64598972e-01 -3.38861525e-01 -1.63538039e-01
    -2.61467043e-02 -3.85951586e-02  1.31505474e-01  1.04527816e-01
     2.19402928e-02 -3.28067914e-02 -2.82149434e-01 -6.93547949e-02
     3.70889157e-02 -2.61677444e-01 -8.25101696e-03  5.87491728e-02]
   [-3.40721846e-01 -1.02680817e-01  3.57605517e-02  6.17458932e-02
     1.97144955e-01 -2.19586045e-01  5.22489138e-02  3.43128473e-01
     5.72696589e-02  2.70600706e-01 -1.57962486e-01  3.87886286e-01
     1.43170580e-01  1.11313529e-01 -1.68774426e-01  1.11517161e-01]]

  [[ 5.23524024e-02  1.22242220e-01 -1.71520144e-01 -5.02507202e-02
     1.79137476e-02 -3.97218429e-02 -1.85802635e-02 -1.09611794e-01
    -9.45762843e-02  1.37588412e-01 -1.19151257e-01 -1.16851144e-01
     7.02888668e-02  7.93982968e-02  3.45119573e-02  1.19081147e-01]
   [-7.09829926e-02 -4.50585723e-01  1.35987580e-01 -8.56336728e-02
    -5.55819333e-01 -8.87694582e-02 -4.34075147e-01 -6.85416907e-02
     2.74225652e-01 -4.41376954e-01  3.36964935e-01  1.74932465e-01
     2.94099301e-01 -6.41125590e-02  1.81754708e-01 -5.65723002e-01]
   [-2.23253891e-01 -1.86007600e-02  7.31005818e-02  4.37116660e-02
     1.26494929e-01 -2.45262861e-01 -2.35465884e-01  6.78529888e-02
     2.13123322e-01  1.29957631e-01  6.71113282e-02  2.22484991e-01
     2.23387197e-01  5.46978824e-02 -3.02319497e-01  5.43164164e-02]
   [-2.31009662e-01 -2.31264606e-01 -4.14907455e-01 -1.57324895e-01
    -1.02542728e-01 -1.26563773e-01 -7.49229267e-02 -9.40857735e-03
     8.14382955e-02 -2.19695196e-01  1.58327841e-03  9.57513452e-02
     1.64654806e-01 -1.46977352e-02 -6.25293329e-02 -1.24471366e-01]
   [-3.80335003e-02 -3.02045047e-01 -3.86079937e-01 -2.40413606e-01
     9.25259851e-03  1.52734686e-02  9.04643312e-02  3.97260068e-03
    -3.51905227e-02 -1.99551284e-01 -1.76043630e-01  5.11909425e-02
     2.55829841e-02 -1.29325882e-01 -2.09882736e-01  7.17540830e-02]
   [-3.62746239e-01 -2.69378036e-01  7.10171759e-02  1.11573404e-02
     2.61298120e-01 -2.12423250e-01 -8.65421444e-02  4.07348573e-01
     1.29969001e-01  2.55886137e-01 -1.68213323e-01  4.22753364e-01
     3.21890533e-01 -7.82329887e-02 -2.98046499e-01  1.09380126e-01]]

  [[ 7.85940886e-02  5.84047660e-02 -3.25374514e-01  3.68749425e-02
     7.47708678e-02  5.39033525e-02  1.26310572e-01 -1.87119350e-01
    -1.47186130e-01 -4.13812511e-02 -1.48614958e-01 -1.61281556e-01
    -3.38145047e-02  1.38040036e-01 -1.36945192e-02 -3.10173575e-02]
   [-1.65560320e-02 -4.54904199e-01  2.63925046e-01 -1.31139576e-01
    -5.32379091e-01 -2.16775939e-01 -5.63571274e-01 -1.94371521e-01
     3.09038252e-01 -4.13803995e-01  3.77971083e-01  1.42201602e-01
     3.44819754e-01 -2.39959378e-02  2.14121550e-01 -6.18405700e-01]
   [-3.67251724e-01  1.52550697e-01  7.13834018e-02  3.60965848e-01
     2.91749597e-01 -2.06388101e-01 -1.59411952e-01  7.07629323e-03
     7.33725652e-02  1.36669591e-01  2.90755369e-02  1.91968203e-01
     2.24618033e-01  3.26388851e-02 -2.74523526e-01  3.45698744e-02]
   [-1.07670434e-01 -2.08727464e-01 -3.66294414e-01 -1.07867800e-01
     9.43481997e-02 -1.48927599e-01 -1.66966859e-02 -5.07638864e-02
    -1.22045763e-01 -1.46143004e-01  9.68565643e-02  9.02302749e-03
     2.12205812e-01 -1.53274849e-01 -1.93983555e-01 -1.08499732e-03]
   [-2.35935986e-01 -1.18312910e-01 -3.09351772e-01 -5.02079912e-02
     2.09152281e-01 -1.46088794e-01 -9.26354975e-02 -1.58861831e-01
    -4.20853868e-02 -7.19245076e-02 -1.50763303e-01 -4.35170196e-02
     7.49793127e-02 -1.90300211e-01 -9.12475139e-02 -2.96986979e-02]
   [-2.89457530e-01 -1.33393660e-01 -2.29596952e-03  1.57448038e-01
     2.44475901e-02 -2.64274031e-01 -2.20230237e-01  2.19068065e-01
     1.60467550e-01 -8.66916031e-03 -4.25665118e-02  1.96871042e-01
     3.03193182e-01 -1.44912556e-01 -1.98919490e-01  8.42249114e-03]]

  [[-4.81209122e-02  9.52595472e-02 -1.84417412e-01 -3.67969014e-02
     8.75859261e-02 -3.23414020e-02  7.78229628e-03 -8.91794488e-02
    -6.21345602e-02  1.00103328e-02 -1.89444438e-01 -5.20205572e-02
    -3.73940058e-02  8.06932598e-02 -7.88022205e-02  1.12019526e-02]
   [ 1.81994922e-02 -2.06368610e-01  2.29624122e-01 -1.04428962e-01
    -5.08571327e-01 -1.28923535e-01 -4.09052730e-01 -3.08211714e-01
     2.15869918e-01 -4.14057016e-01  5.82405090e-01  1.72140911e-01
     7.63977990e-02  5.50418124e-02  1.64143115e-01 -4.66334075e-01]
   [-2.48292089e-01  3.52842599e-01  2.63900965e-01  3.26763362e-01
     1.62405282e-01 -2.69801229e-01 -1.06061339e-01  1.68786362e-01
    -1.04870513e-01  2.27198109e-01  1.25314876e-01  6.17171302e-02
     2.77482551e-02  1.85104404e-02 -7.93321431e-02  1.00952223e-01]
   [-2.57876158e-01 -5.82253784e-02 -3.76832455e-01 -8.74363184e-02
     3.32873613e-02 -5.17922454e-02 -5.02044857e-02 -2.41658464e-01
    -1.52799115e-01 -1.90993890e-01  3.16509791e-02 -9.26419199e-02
     1.60341248e-01 -8.77843052e-02 -1.46549627e-01 -1.46357372e-01]
   [-1.18490763e-01 -9.40177217e-02 -4.64956015e-01 -2.15390459e-01
     2.10901573e-01 -1.30373575e-02  4.85977046e-02 -1.07157908e-01
    -7.63055086e-02 -1.99110940e-01  6.25827303e-03 -1.90404162e-01
     4.85975947e-03 -1.69859394e-01 -4.43149693e-02  1.07518271e-01]
   [-4.24322486e-01  8.04837048e-03  6.93249702e-02  3.30011368e-01
     8.83761495e-02 -2.83997953e-01 -1.57202512e-01 -3.95167954e-02
     1.93492576e-01  3.48740630e-02  1.41867384e-01  3.07426542e-01
     3.41882437e-01  3.04762423e-02 -1.15847379e-01  1.03528932e-01]]

  [[-3.09276190e-02  3.02756904e-03 -1.21428505e-01 -1.22958040e-02
     2.85221040e-02 -1.33648906e-02 -1.20983636e-02 -2.07211729e-02
     1.56429932e-02 -6.52062893e-02 -1.07753932e-01 -9.96067226e-02
     8.64442289e-02 -8.60075001e-03 -6.95193931e-02  1.18465997e-01]
   [ 5.13353385e-02  1.68488607e-01  2.87166417e-01 -9.81311053e-02
    -5.75376868e-01 -8.73376951e-02 -3.93564671e-01 -9.55151245e-02
    -2.27194339e-01 -2.35894844e-01  5.44393480e-01 -1.37423426e-01
     1.10652456e-02  5.96941859e-02  1.08035691e-01 -5.65523744e-01]
   [-2.04128742e-01  4.93972719e-01  1.88097775e-01  1.08991563e-02
     1.72662377e-01 -2.22436622e-01  1.01925628e-02  1.42208084e-01
    -3.21222126e-01  2.59264857e-01  6.64655045e-02 -1.77696005e-01
    -4.06108350e-01  1.19283468e-01 -7.02536032e-02  7.79737160e-02]
   [-3.78339998e-02  3.54405455e-02 -4.62949723e-01 -5.65837100e-02
    -2.98490692e-02 -1.87672123e-01 -1.62807316e-01 -1.53671265e-01
    -2.22501934e-01 -2.05012485e-01  2.14937240e-01 -8.31379592e-02
    -2.81004962e-02 -1.88936546e-01 -3.96672077e-02 -3.82639207e-02]
   [-9.03427303e-02  5.55731310e-03 -3.13863307e-01 -8.01450610e-02
     3.34734805e-02 -1.76052183e-01  2.22305395e-02 -2.13775292e-01
    -3.11419994e-01 -1.46452576e-01  1.09929219e-01 -2.25537315e-01
    -5.26096225e-02 -2.56802052e-01 -4.18413281e-02 -4.71062697e-02]
   [-3.29593927e-01  1.42966956e-01  1.00571342e-01  1.92126140e-01
    -5.96532300e-02 -3.41216534e-01 -2.22518057e-01  6.34103045e-02
     2.58206099e-01  1.70202255e-01  2.29310721e-01  2.41352290e-01
     1.09890185e-01  6.50076102e-03 -2.54886150e-01  4.08239886e-02]]]


 [[[ 1.19050011e-01  8.80227163e-02 -1.69150367e-01  9.60942656e-02
    -2.80248404e-01  5.23776822e-02  2.83440622e-03 -8.83046463e-02
    -2.38956641e-02  3.23623084e-02  2.00146418e-02 -3.48573998e-02
     4.49278913e-02  1.33183971e-01  1.23629915e-02 -1.23909354e-01]
   [ 4.49788630e-01 -2.62921065e-01  1.47921070e-01 -6.44972250e-02
    -3.02244633e-01  4.99441382e-03 -2.44130895e-01  1.92962885e-01
     2.20725760e-01 -1.23224318e-01  2.52950490e-01  2.72648543e-01
     9.85445902e-02  1.95913553e-01  2.64106184e-01 -4.44545209e-01]
   [-1.82945997e-01 -1.41931295e-01  1.39672682e-01  1.58051416e-01
     4.06677544e-01 -3.33320767e-01 -1.40496925e-01  2.69321263e-01
     1.61781073e-01  2.31113985e-01  1.78012103e-01  1.91730082e-01
    -1.30923748e-01  2.12077662e-01 -1.65341765e-01  2.22613111e-01]
   [-3.96404229e-02 -2.20882058e-01 -4.85591479e-02 -1.02013297e-01
    -5.27086593e-02  8.53967071e-02  9.03376043e-02  1.94109723e-01
     1.36868939e-01 -1.48599237e-01  4.44988254e-03 -8.07821304e-02
     6.85487390e-02  2.46031806e-02 -1.58613905e-01 -9.57544670e-02]
   [-1.90000348e-02 -1.94004163e-01 -1.50731400e-01 -1.66147888e-01
    -2.17647087e-02  4.83210981e-02  1.43201545e-01  2.03111380e-01
     4.50454885e-03 -5.57496212e-02 -3.66197191e-02 -1.09891631e-02
     7.54693616e-03  3.79592963e-02 -9.52699631e-02  5.97183816e-02]
   [-1.36252120e-01 -1.09430797e-01  1.34556770e-01  7.21651837e-02
     4.67551410e-01 -3.03233296e-01  1.83811218e-01  4.46156949e-01
     7.10879546e-03  3.00822616e-01 -1.18209541e-01  7.79883415e-02
    -9.78936777e-02  1.93250179e-02 -3.15893084e-01  7.36947954e-02]]

  [[ 5.27644977e-02  1.62671044e-01 -2.32969359e-01  1.02600485e-01
    -1.65100798e-01  1.85871884e-01  3.12422477e-02 -7.67731592e-02
     8.34677219e-02  9.60384756e-02 -8.10506754e-03 -6.76025078e-02
    -3.63175832e-02  1.35845363e-01  1.39599834e-02 -9.15371329e-02]
   [ 3.80546123e-01 -1.67875558e-01 -1.66590065e-02 -5.23363315e-02
    -4.29156065e-01  4.21568677e-02 -2.98707843e-01 -4.67640795e-02
     3.36645156e-01 -1.31914049e-01  4.91810650e-01  4.26062047e-01
     9.39217061e-02  6.16193973e-02  2.23992556e-01 -4.68817860e-01]
   [-3.22640121e-01 -1.67676643e-01  1.78284347e-01  1.64365858e-01
     4.47465032e-01 -4.05209869e-01 -9.18377638e-02  1.61475256e-01
     1.73289970e-01  7.14277625e-02  6.73398450e-02  1.21406347e-01
    -2.30678469e-01  2.95957597e-03 -1.38228133e-01  2.00055212e-01]
   [ 2.18868330e-02 -2.04191178e-01 -1.49498656e-01 -1.97925493e-01
    -1.01644702e-01  1.04402386e-01  1.36842787e-01  1.07375167e-01
     3.40227112e-02 -1.11572623e-01  1.58183742e-02  7.79200491e-05
     8.41396824e-02  1.02929235e-01  1.23831406e-02 -1.35923978e-02]
   [-4.89535667e-02 -1.99510157e-01 -2.36650437e-01 -2.45771646e-01
    -6.68516234e-02  1.20746277e-01  3.24086286e-02  1.31828487e-01
     1.04500718e-01 -1.65469140e-01  8.45721662e-02 -9.72921029e-03
    -6.28435612e-02 -5.84975965e-02 -2.07326785e-01  9.02271271e-02]
   [-2.74456531e-01 -2.23090783e-01  9.16707739e-02  2.77944542e-02
     2.83062875e-01 -4.45462972e-01 -5.30963913e-02  3.82534027e-01
     2.15503871e-01  1.36984035e-01  2.84690056e-02  1.27087459e-01
     7.52980709e-02  5.82142584e-02 -2.08279938e-01  9.02927592e-02]]

  [[ 5.97851910e-02  1.22076765e-01 -1.82996467e-02  6.12235479e-02
     2.26417799e-02  7.21252486e-02  1.24113105e-01 -1.08886855e-02
     6.51786104e-02  7.09187659e-03  1.07904635e-02 -4.91027348e-02
     1.11531138e-01  2.32846830e-02 -5.81044108e-02 -8.01171213e-02]
   [ 2.62179524e-01 -2.48384938e-01 -1.50536839e-03 -1.10703871e-01
    -4.13347214e-01 -1.65103264e-02 -3.33806366e-01 -2.06780151e-01
     2.54648745e-01 -2.17839941e-01  7.16685474e-01  4.28540140e-01
    -2.14172024e-02 -7.83265829e-02  1.65641680e-01 -4.53392386e-01]
   [-1.47221684e-01  2.14376584e-01  8.93086493e-02  2.43852764e-01
     3.17759961e-01 -3.76506239e-01 -7.48587847e-02  1.33045733e-01
     6.66659791e-03  9.75236595e-02  4.39972058e-02  8.54607746e-02
    -2.93373138e-01  1.21575221e-01 -1.97593957e-01  2.05438808e-01]
   [-1.53406352e-01 -2.34896302e-01 -1.80757493e-01 -8.58555958e-02
    -5.16675673e-02 -6.64758086e-02 -6.64821267e-02  1.43726310e-03
    -1.13412321e-01 -4.88517694e-02  1.76684976e-01 -1.27012819e-01
    -8.38379115e-02 -7.67209232e-02 -1.41994632e-03 -3.09223142e-02]
   [-3.57467234e-02 -2.25015804e-01 -1.89254537e-01 -8.66117328e-02
     7.80789629e-02  1.17871743e-02 -2.91740950e-02 -1.62454158e-01
    -1.44108295e-01 -7.11735785e-02  8.43173787e-02 -6.72468841e-02
    -3.59945372e-02 -5.98581657e-02 -1.66987106e-01 -4.31446955e-02]
   [-3.19213063e-01 -2.04902083e-01  7.18374327e-02  1.56683505e-01
     3.66386980e-01 -3.42260152e-01 -1.09108567e-01  1.75341681e-01
     1.10634603e-01  1.09908111e-01 -3.55695821e-02  1.56448647e-01
     3.33831124e-02 -5.73829152e-02 -1.72176108e-01  1.64009497e-01]]

  [[ 5.38250208e-02  5.35628423e-02 -1.81283548e-01  3.35160494e-02
    -4.55990359e-02  1.21554270e-01  9.05755833e-02 -7.01102540e-02
    -4.57148701e-02 -2.33399421e-02 -5.53664984e-03 -3.22292512e-03
    -5.88061698e-02  1.84900969e-01 -2.65052598e-02  9.65509042e-02]
   [ 2.19885483e-01 -2.60275844e-02 -5.84048666e-02 -1.07269302e-01
    -3.53685141e-01  1.85381070e-01 -3.56160700e-01 -2.42507786e-01
     2.90963560e-01 -2.65116870e-01  7.52644420e-01  3.38349164e-01
    -1.38717547e-01 -5.14799217e-03  1.43347263e-01 -3.89523119e-01]
   [-3.22877944e-01  3.75266880e-01  2.43823647e-01  1.34128720e-01
     2.61623025e-01 -3.31253380e-01 -8.65881592e-02  1.27377165e-02
    -1.83189318e-01  8.10210928e-02  1.14649691e-01 -4.25163619e-02
    -2.75893867e-01 -1.48445589e-03 -1.35511696e-01  1.95466429e-01]
   [-2.14286894e-02 -8.42751656e-03 -8.23862851e-02 -2.31957614e-01
     6.70705689e-03  4.73595038e-02 -2.70798728e-02 -2.34069094e-01
    -9.04154703e-02 -1.76019326e-01  2.54058510e-01 -8.83096457e-02
    -2.00384051e-01 -8.54666680e-02 -1.31200366e-02 -2.34473944e-02]
   [-5.16294986e-02 -7.72290817e-03 -1.74046949e-01 -1.67042822e-01
     1.02320071e-02  5.18099293e-02 -4.71224263e-02 -1.06344208e-01
    -3.75816822e-02 -1.14122301e-01  1.32267773e-01 -2.34826673e-02
    -2.26207495e-01  1.60798132e-02 -2.42531598e-02 -2.25555990e-02]
   [-2.14921579e-01 -4.29756474e-03  1.74865782e-01  7.66852722e-02
     2.25644171e-01 -3.17199439e-01 -1.41766623e-01  8.39796755e-03
     7.21895844e-02  1.23609044e-01  2.57314444e-01  1.01278730e-01
    -3.82781401e-02  2.13842504e-02 -2.40650207e-01  1.54526621e-01]]

  [[ 1.73710912e-01  6.73973188e-02  9.86183807e-03 -1.40511081e-01
    -1.46156162e-01  1.61293104e-01  9.01906714e-02 -5.85204735e-02
    -1.08861248e-03 -2.15507504e-02 -1.30580336e-01 -1.80459507e-02
     4.50749360e-02  1.02233507e-01 -4.12254184e-02 -2.04566941e-02]
   [ 2.73399651e-01  1.88065276e-01  4.00766991e-02  5.54581769e-02
    -2.03722268e-01  1.72107607e-01 -3.74417454e-01 -1.56864803e-03
    -7.61888549e-02  2.48264205e-02  4.80143636e-01  2.78037041e-01
    -2.66659111e-01 -6.54920191e-02  2.16686457e-01 -3.94947976e-01]
   [-2.13124692e-01  4.98220682e-01  2.66282797e-01  6.54171705e-02
     3.28501344e-01 -2.09922373e-01  1.00904487e-01  2.26586118e-01
    -4.17611003e-01  3.53986591e-01  1.62195578e-01 -2.59427339e-01
    -5.68223059e-01 -1.87255368e-02 -1.11023195e-01  1.61531657e-01]
   [-8.81077722e-02 -1.26707986e-01 -1.39089510e-01 -1.43559605e-01
    -1.14003748e-01  1.10095732e-01 -1.29445031e-01 -1.90219581e-01
    -1.48511395e-01 -2.36516759e-01  1.53580293e-01 -1.65859967e-01
    -1.20697603e-01 -1.77314892e-01  2.89044864e-02 -8.88562202e-02]
   [-6.47363365e-02 -1.01756074e-01 -4.74502817e-02 -8.99983943e-03
    -8.11906904e-02 -1.47199435e-02 -6.11438602e-02 -1.15494557e-01
    -2.13841781e-01 -2.11233720e-01  2.41514042e-01 -5.92645481e-02
    -2.47319564e-01 -3.66057009e-02 -7.38079920e-02  2.87214462e-02]
   [-3.75247866e-01  3.30323160e-01  2.22507715e-01  2.46854827e-01
     1.92788363e-01 -2.68119335e-01 -8.53906646e-02  9.33112875e-02
    -1.37814075e-01  7.12532401e-02  3.49999309e-01 -1.30661549e-02
    -2.41940022e-01  2.50965673e-02 -2.84944981e-01  1.77553937e-01]]]


 [[[ 9.65129808e-02 -1.10877551e-01  6.56185672e-02 -9.97152999e-02
    -4.09300655e-01  2.44225748e-02 -6.94145216e-03 -2.41414815e-01
     1.49508834e-01 -1.13737494e-01 -2.34952699e-02  9.82372090e-03
     4.83157970e-02  1.30553603e-01  4.02481854e-02 -1.58780321e-01]
   [ 5.10036469e-01 -1.71581373e-01  1.09677240e-01 -1.13443948e-01
     9.56390277e-02  1.79695994e-01 -3.13545793e-01  3.15020621e-01
     6.09879643e-02  2.63657253e-02 -2.25944072e-01  9.76404622e-02
    -7.66521156e-01 -1.56670418e-02  3.50581221e-02 -4.01019812e-01]
   [-1.03465989e-01  2.60469485e-02  2.20976725e-01  9.38063934e-02
     6.14246786e-01 -3.02562922e-01  1.83020474e-03  3.68787348e-01
    -7.22508952e-02  1.69141114e-01  3.13721038e-02 -1.21001098e-02
    -5.60101509e-01  2.07641765e-01 -9.56696421e-02  3.12523574e-01]
   [ 7.17365071e-02 -3.08989137e-01  1.60347357e-01 -3.79307359e-01
    -3.98885131e-01  1.23792842e-01  2.02027053e-01  2.32692048e-01
    -5.47952950e-02 -2.92548031e-01  1.07467072e-02 -2.18506604e-01
    -2.13604674e-01  1.61434889e-01 -1.10708795e-01 -3.00651282e-01]
   [ 1.06178902e-01 -2.62243718e-01 -1.06442440e-02 -3.67412210e-01
    -2.32446119e-01  1.32347926e-01  1.79734454e-01  1.47426248e-01
     1.08462624e-01 -1.82841912e-01 -4.35427874e-02 -2.05480188e-01
    -3.21057141e-01  1.68947354e-01 -1.84665937e-02 -7.54527329e-03]
   [-2.26728961e-01  1.22756489e-01  1.98167771e-01  6.99274465e-02
     5.70793629e-01 -2.24974781e-01  2.84159303e-01  4.89491135e-01
    -4.56689447e-02  2.83712000e-01 -1.99099764e-01 -3.04272622e-02
    -3.28721285e-01 -1.74752180e-03 -2.49239489e-01  2.62701958e-01]]

  [[ 1.22363865e-01 -1.53916255e-02  8.23658258e-02  9.56932956e-04
    -3.60444158e-01  1.62001297e-01  6.20877603e-03 -1.19137555e-01
     2.74467058e-02 -2.31588893e-02  8.49455670e-02 -5.74587882e-02
     7.78449401e-02  2.39445433e-01 -1.06146455e-01 -6.95417672e-02]
   [ 4.15219873e-01 -1.56059802e-01  3.86227816e-02 -3.48038450e-02
    -1.62879422e-01  1.28857329e-01 -3.47202212e-01  7.97871947e-02
    -5.42819351e-02 -8.84994641e-02  1.22005485e-01  7.53953904e-02
    -6.34730220e-01  1.94127068e-01  2.84838341e-02 -4.24297780e-01]
   [-2.06555307e-01 -1.37215657e-02  1.14462428e-01  1.07170828e-01
     6.33740962e-01 -2.51298308e-01  8.07574913e-02  2.76423842e-01
    -1.26244694e-01  2.53417641e-01 -6.54515922e-02 -2.36053709e-02
    -4.86746699e-01  4.30051573e-02 -5.01776300e-02  2.68864572e-01]
   [ 1.89881697e-01 -2.53180653e-01  7.72663280e-02 -2.57682025e-01
    -2.68522352e-01  2.36534193e-01  1.19718410e-01  1.55224621e-01
     7.34040630e-04 -2.44894281e-01  1.03632286e-02 -2.63645828e-01
    -3.88966024e-01  1.44110262e-01  5.70854126e-03 -2.72114307e-01]
   [ 8.30220208e-02 -1.10795148e-01  5.71639687e-02 -1.62237480e-01
    -2.11646453e-01  2.09549651e-01  3.81230265e-02  6.15538992e-02
     3.78728025e-02 -1.66986719e-01  1.07912987e-01 -2.05936432e-01
    -3.62315834e-01  2.21904933e-01 -8.06847289e-02  1.81409332e-03]
   [-2.73093522e-01 -8.83978978e-03  3.97866480e-02 -1.57949012e-02
     5.75357258e-01 -3.91670257e-01  1.68658078e-01  4.65899557e-01
     2.54902449e-02  2.77435869e-01 -6.24525212e-02  1.34822041e-01
    -3.13886255e-01  5.51254414e-02 -2.53343642e-01  1.82331026e-01]]

  [[ 1.84672996e-02 -5.52279465e-02  6.27382472e-02 -1.32362500e-01
    -3.10822427e-01  4.78961021e-02  8.06182697e-02 -2.08496258e-01
     7.74247050e-02 -1.53729379e-01 -4.13542055e-02 -1.68089211e-01
    -2.96950191e-02  2.30122313e-01  5.85722132e-03 -8.19254816e-02]
   [ 5.26459932e-01 -4.79354747e-02 -9.19568688e-02 -9.69846919e-02
    -2.78060973e-01  2.25338727e-01 -3.07768106e-01 -3.37428264e-02
     5.57822436e-02  1.60012115e-02  2.30853274e-01  2.46275701e-02
    -7.35583842e-01  1.76948965e-01  6.78865016e-02 -4.20646966e-01]
   [-7.65547305e-02  1.98576525e-01  1.16761357e-01 -4.43873322e-03
     5.87957919e-01 -2.54402250e-01  6.22013435e-02  2.02375799e-02
    -1.35635138e-01  9.61052030e-02 -1.18736491e-01 -6.73817173e-02
    -5.19079387e-01  4.39082980e-02 -2.21464559e-01  2.90251166e-01]
   [ 1.85821697e-01 -1.03389598e-01  1.68353334e-01 -3.09922218e-01
    -2.75740892e-01  2.35978827e-01  1.98604558e-02  3.04940389e-03
    -1.27120391e-01 -2.06835777e-01  1.30410194e-01 -2.64687508e-01
    -3.30380529e-01  1.57238394e-01 -9.33444053e-02 -2.13541582e-01]
   [ 1.25135854e-01 -5.45687228e-02  4.95946109e-02 -2.89994419e-01
    -6.31100833e-02  1.59221575e-01  4.33822498e-02  4.17593727e-03
    -6.77346885e-02 -1.42667592e-01  3.05316858e-02 -2.34955102e-01
    -3.39731693e-01  2.07026362e-01 -1.38753414e-01  3.64567004e-02]
   [-2.88513958e-01  6.94733411e-02  1.71143889e-01  1.11838989e-01
     6.04395866e-01 -4.24072862e-01 -5.57868928e-02  2.83687800e-01
     1.64540224e-02  2.39720449e-01  4.90182936e-02  1.43929780e-01
    -4.35752600e-01 -2.56093740e-02 -1.01787090e-01  1.65257588e-01]]

  [[ 1.59146026e-01 -2.54822951e-02  8.88227522e-02 -4.15621959e-02
    -3.62029701e-01  2.14136451e-01  1.01260394e-01 -1.79453298e-01
     2.77546216e-02 -6.83279037e-02 -2.99445298e-02 -2.97611021e-02
     2.66459417e-02  1.07155092e-01  1.46409711e-02 -1.37193501e-01]
   [ 5.33664048e-01 -8.78987163e-02  8.20447206e-02 -1.56998768e-01
    -1.11339241e-01  1.34286031e-01 -4.20449466e-01 -2.49637682e-02
    -1.21174276e-01  2.61743423e-02  2.54142284e-01  4.27381359e-02
    -6.34305000e-01  2.07911879e-01  1.65767953e-01 -4.00777727e-01]
   [-1.53574258e-01  3.45939577e-01  2.34994024e-01  2.04942092e-01
     4.83947486e-01 -2.77318478e-01  1.37930959e-02  1.67185247e-01
    -3.30514759e-01  2.79862612e-01  6.89732283e-03 -2.22112313e-01
    -5.72600186e-01  1.40251249e-01 -4.10071015e-02  2.03201249e-01]
   [ 2.15817131e-02 -1.74664512e-01  4.72959764e-02 -3.60756278e-01
    -2.67739832e-01  2.05651209e-01 -9.37426388e-02 -3.22892554e-02
     2.78424770e-02 -7.99636692e-02  1.87584355e-01 -2.18373835e-01
    -3.36248010e-01  7.40274191e-02 -5.10649122e-02 -1.36481673e-01]
   [ 1.08444408e-01 -1.32236853e-01  6.81198016e-02 -1.13809891e-01
    -1.81122422e-01  1.63923115e-01  5.34255384e-03 -1.15357362e-01
    -4.86376174e-02 -1.71262607e-01  1.63097337e-01 -3.08007509e-01
    -3.14149648e-01  2.00812772e-01 -5.17529361e-02  2.37722583e-02]
   [-3.01679820e-01  1.13055967e-01  1.16296746e-01  1.15809105e-01
     4.80551571e-01 -3.81401569e-01 -4.82428595e-02  1.97906390e-01
    -8.40905234e-02  7.32072443e-02  9.72973630e-02 -2.65746359e-02
    -4.85490441e-01  9.49433073e-02 -2.00892985e-01  2.93713391e-01]]

  [[ 1.26963660e-01 -1.84535384e-01  9.32460278e-02 -2.04365820e-01
    -3.71108025e-01  2.16674674e-02 -2.27806042e-03 -1.67007864e-01
     1.08417191e-01 -1.42703027e-01 -9.02181044e-02 -1.06545202e-01
     9.42882597e-02  2.25711212e-01 -6.08246848e-02 -7.45081753e-02]
   [ 4.44792658e-01  1.19506545e-01  1.06987223e-01 -3.29326987e-02
    -7.99473282e-03  2.57113189e-01 -3.14718425e-01 -5.32286502e-02
    -9.12755579e-02 -1.92580428e-02  9.08184275e-02 -5.18854223e-02
    -8.53932202e-01  8.02949890e-02  1.39531881e-01 -3.10639292e-01]
   [-2.23836787e-02  4.90205020e-01  1.82437062e-01  1.52166173e-01
     6.75603032e-01 -2.71201670e-01 -1.46151055e-02  2.07417488e-01
    -5.09143293e-01  3.01580459e-01 -1.25278011e-01 -3.74125659e-01
    -7.90784001e-01 -4.21945518e-03 -1.10866344e-02  1.49250790e-01]
   [ 1.36027053e-01 -1.68818697e-01  3.32408361e-02 -3.36249381e-01
    -2.79433131e-01  1.24295000e-02 -1.48870528e-01 -1.25170827e-01
    -1.30974039e-01 -2.71228045e-01  2.09790707e-01 -2.56129563e-01
    -4.99097109e-01  7.21521452e-02  8.79305229e-02 -2.33177587e-01]
   [ 4.06425707e-02 -1.84960272e-02  4.39309999e-02 -1.15745269e-01
    -2.32981682e-01  1.33345708e-01  1.61796827e-02  2.00669296e-04
    -6.35789186e-02 -8.73723924e-02  2.55278409e-01 -2.13791430e-01
    -5.32754004e-01  1.04490161e-01 -3.01815215e-02 -3.32408287e-02]
   [-1.97704688e-01  2.65016347e-01  1.82601109e-01  1.13344103e-01
     4.32239711e-01 -4.13293630e-01  6.42382801e-02  7.38660023e-02
    -2.63868839e-01  3.00949872e-01  9.70936120e-02 -1.49109080e-01
    -4.40972060e-01  1.07001349e-01 -1.80107415e-01  1.76678151e-01]]]]
le_net5/conv2d_1/bias:0
(16,)
[-0.08114953  0.05627402  0.10730402  0.03407764  0.10848067 -0.13638592
  0.1500325  -0.02226477 -0.06024764  0.04287395 -0.15370078 -0.009032
 -0.14314441  0.05161591 -0.13372487  0.14696604]
le_net5/dense/kernel:0
(400, 120)
[[-1.88546851e-01 -2.84434799e-02 -2.40287274e-01  8.82194415e-02
  -1.79207623e-02 -2.48925388e-01 -1.19231664e-01  1.51462525e-01
   2.48066440e-01 -1.45322815e-01  2.52476424e-01 -2.63401359e-01
  -3.62893119e-02  7.14988485e-02  1.27851754e-01 -2.92869598e-01
   1.82482943e-01 -3.52610290e-01 -1.27802445e-02  6.91771358e-02
  -2.09024131e-01 -3.50949243e-02 -9.93310511e-02  4.59529422e-02
   1.02142833e-01 -4.60767932e-02 -3.36107373e-01  1.08443804e-01
  -1.39976054e-01 -3.88797879e-01 -2.18781084e-01  1.04269244e-01
   1.83144182e-01 -4.14474569e-02  1.46390840e-01  9.86454338e-02
  -3.08905654e-02 -6.21783994e-02 -4.62807901e-02  2.58552283e-01
   3.07516664e-01 -1.54024124e-01 -1.43090084e-01 -1.47797003e-01
   1.79936364e-01  4.93725017e-02 -9.92193520e-02  2.18926772e-01
   8.09811801e-03 -1.30307153e-01  2.58035272e-01 -7.73890242e-02
   1.66950375e-01  1.52670562e-01 -1.99961185e-01 -2.23698005e-01
   2.53077000e-01 -7.05273598e-02  1.89787894e-02 -9.07531381e-02
   1.43264487e-01  2.05691949e-01  5.24467509e-03 -8.81444197e-03
  -4.68516611e-02  4.29278165e-02  2.92845517e-01 -3.59816700e-02
  -2.99041748e-01  1.76596329e-01  1.97560772e-01  3.84974219e-02
   1.37044154e-02 -5.30887209e-02 -1.80211276e-01 -4.13415693e-02
  -7.77937248e-02  1.22635663e-01  2.64005940e-02 -2.55957752e-01
   2.63052844e-02 -3.36052328e-01 -1.98690500e-02 -2.09983811e-01
  -8.37312341e-02 -4.74454388e-02 -1.58330217e-01 -1.59493312e-02
   1.65320233e-01  3.15051787e-02 -9.59102213e-02 -3.90958749e-02
  -1.15760580e-01 -6.13467060e-02  2.42158145e-01  5.67486212e-02
  -1.27178237e-01 -8.08465183e-02 -9.61293355e-02  2.22542048e-01
   5.65303937e-02 -1.44742355e-01  2.16224156e-02 -1.58650801e-01
   8.29481557e-02 -2.71576315e-01 -3.56433004e-01  1.34966359e-01
   2.24090125e-02 -1.57117829e-01  1.20072782e-01 -4.08207864e-01
  -2.61616230e-01  1.30487233e-01  2.56073512e-02  7.57669359e-02
   3.22886407e-01  3.21836025e-02  2.92661209e-02  2.56229997e-01]
 [ 1.62744179e-01  7.51673151e-03  2.44250342e-01 -3.64924341e-01
  -6.94969654e-01  8.28357935e-02  4.52326844e-04  1.33092970e-01
  -1.00430936e-01  1.76940024e-01 -1.89795140e-02  1.45307869e-01
  -2.31950253e-01 -1.06270231e-01  1.13245556e-02  4.53412414e-01
  -3.77113998e-01  1.12083383e-01  1.50571674e-01 -1.21429309e-01
   2.09283400e-02  1.90515414e-01 -3.92315723e-03 -2.79250026e-01
  -9.85146388e-02  7.79162869e-02 -1.71829134e-01 -1.09969959e-01
   4.01541591e-03  3.79916787e-01 -2.49788970e-01  4.66748662e-02
  -7.63185248e-02 -3.93548489e-01 -5.58935046e-01  1.04139507e-01
   3.57064679e-02  4.56964858e-02  1.43790752e-01 -5.04148245e-01
  -4.30904806e-01  3.52348089e-01  3.20828974e-01 -6.40334114e-02
  -3.12210828e-01 -5.68807907e-02 -4.18370038e-01 -2.16919422e-01
   2.34343521e-02  8.63509811e-03 -4.69860017e-01 -1.48581624e-01
  -3.33083361e-01 -9.13120583e-02  1.62350386e-01  8.71986449e-02
  -5.45634449e-01  4.05768268e-02  4.31851804e-01 -8.45168084e-02
  -3.04706335e-01  3.26222787e-03 -3.64768326e-01 -1.45731583e-01
  -2.59137690e-01 -2.32147306e-01 -4.53614205e-01 -5.25434911e-01
   7.75852129e-02  2.94946105e-04 -2.70734429e-01 -3.29748124e-01
  -2.87857026e-01 -3.05125356e-01  1.42380437e-02  2.02700645e-02
  -4.05293912e-01 -3.72316991e-03  7.26971775e-02 -2.47773141e-01
  -3.61125916e-01  1.17754973e-01  2.81284321e-02  1.16623327e-01
  -7.25341290e-02  1.65186580e-02  1.55664787e-01 -4.92013320e-02
  -9.10050124e-02  1.77697334e-02 -1.22795977e-01 -1.69546068e-01
   4.42197144e-01 -2.30759814e-01  1.23361824e-02 -9.30538997e-02
  -2.12097969e-02 -1.96982245e-03  1.51945710e-01 -4.48737293e-01
   1.98509656e-02 -1.85467843e-02  1.07398313e-02  5.66863827e-02
  -3.58710021e-01 -1.42161697e-01  5.75757734e-02 -1.10652864e-01
   2.50210315e-01 -1.10032499e-01 -4.18044329e-02 -4.54726338e-01
   1.94043949e-01 -8.09353888e-02 -4.41352911e-02  2.81317253e-02
  -2.55182385e-01 -4.81421500e-01 -1.29162967e-01 -3.74317378e-01]
 [ 1.13959312e-01  2.32493848e-01  4.16150957e-01 -4.66402858e-01
  -3.08944046e-01  4.29212600e-02  3.46083492e-01 -2.11942211e-01
   6.65092915e-02  6.92248568e-02 -3.24538094e-03  1.81901738e-01
  -3.33599329e-01 -2.19099849e-01  7.02618882e-02  2.82398611e-01
  -6.24529839e-01  2.80898865e-02  2.09450811e-01 -7.07838461e-02
   2.86900729e-04  1.06098711e-01 -7.86593258e-02 -1.06188752e-01
  -1.04981452e-01  5.44107817e-02 -1.26124814e-01  7.95595162e-03
  -4.89993058e-02  1.86515078e-01 -5.37574887e-01  5.84963635e-02
   2.43583992e-01 -1.01769969e-01 -2.08562404e-01 -6.48206696e-02
   4.00743484e-01 -1.38393745e-01  1.55209720e-01 -5.41500270e-01
  -4.04166281e-01  1.47743285e-01  4.03879791e-01 -4.43194658e-02
  -2.52856851e-01 -3.68537277e-01 -4.56072181e-01 -8.76592472e-02
  -9.29739699e-02  1.79411039e-01 -4.06773329e-01  1.07383959e-01
  -2.59085774e-01  7.20212236e-02  2.83748861e-02  3.15580547e-01
  -4.84956056e-01  6.31317794e-02  3.34264226e-02  8.59975070e-03
   1.80703253e-01  2.45204464e-01 -1.73096314e-01 -3.19276960e-03
  -3.48563910e-01 -6.24535918e-01 -2.90608108e-01 -2.47552127e-01
  -1.04409875e-02  1.09209763e-02  4.19825464e-02 -2.57568806e-01
  -7.07080290e-02 -8.94528255e-02 -8.99913013e-02  3.42841297e-01
  -1.91653505e-01  2.40354821e-01  1.72802031e-01 -5.27459145e-01
  -2.00494364e-01 -1.01587735e-01  2.40967572e-01 -6.23198226e-02
   1.53385758e-01  1.01398245e-01 -1.57462597e-01 -1.55758694e-01
   2.43005324e-02 -6.35065585e-02 -9.17057618e-02 -4.85136881e-02
   2.19888628e-01 -5.63534260e-01  5.16857542e-02  1.12034053e-01
  -3.48089665e-01 -2.73639321e-01 -1.72235202e-02 -2.65874535e-01
  -3.84576656e-02 -8.41810554e-02  5.81841636e-03  1.88909531e-01
  -4.85689849e-01 -3.76368225e-01 -2.00334396e-02 -1.50680870e-01
   1.40470073e-01 -1.52575105e-01  1.51628062e-01 -6.83722377e-01
   1.02249645e-01 -1.39341012e-01 -1.02277942e-01 -1.70785233e-01
  -3.33103895e-01 -4.47921276e-01  2.94560697e-02 -1.10175952e-01]
 [ 6.48709759e-02 -2.11892560e-01  2.07193747e-01 -1.71046525e-01
  -3.04584950e-01 -1.29046403e-02 -1.35816485e-01 -5.26958564e-03
  -3.40960436e-02  1.08895220e-01 -2.46383213e-02  1.20965578e-01
  -3.92644286e-01 -1.93595752e-01 -2.00857610e-01  1.80332959e-01
  -3.46441269e-01  3.76990996e-02  1.57922745e-01 -1.11742795e-01
  -1.72087118e-01 -1.39096072e-02 -8.98258314e-02 -1.66666761e-01
  -3.95922773e-02  5.44966534e-02  2.96379272e-02  1.40964240e-02
  -1.26892805e-01  3.29908222e-01 -1.67257026e-01  3.35353166e-02
   6.37115911e-02 -2.85350531e-01 -4.73484159e-01  2.29811117e-01
  -7.62177259e-02  9.45498236e-03 -4.30860668e-02 -3.11869204e-01
  -2.89790392e-01  2.31104702e-01  4.03900921e-01  2.88178295e-01
  -2.30770856e-01  1.11141121e-02 -1.15630969e-01 -2.11524040e-01
  -1.06381036e-01 -7.02660754e-02 -2.00409546e-01 -2.91210979e-01
  -3.53090197e-01 -4.74536866e-02  1.85134917e-01  7.01174662e-02
  -2.01597437e-01  5.55421738e-03  4.10629511e-01 -8.26682448e-02
  -3.28344554e-01 -3.41718905e-02 -4.01659787e-01 -1.81138426e-01
  -1.83046460e-01 -5.59316501e-02 -3.99083138e-01 -3.42513949e-01
   4.88799922e-02 -4.69395667e-02 -2.58005440e-01 -1.64098665e-01
  -3.22557002e-01 -3.15263532e-02  5.80733381e-02 -1.26257896e-01
  -2.33080715e-01 -3.57266814e-02 -3.71347517e-02 -1.98451132e-01
  -2.95047820e-01 -9.85404290e-03 -4.59360331e-02  7.58948363e-03
  -9.82725844e-02 -1.10943131e-01  7.56018460e-02  4.11176272e-02
  -1.20423786e-01 -9.40024704e-02 -2.27110252e-01 -2.10544676e-01
   4.21780705e-01 -1.38658345e-01 -1.39669284e-01 -1.66537926e-01
   9.45229158e-02  8.85282457e-03  3.49195264e-02 -3.40935409e-01
  -1.09021664e-01 -7.04535544e-02 -9.78464186e-02  1.44761682e-01
  -2.38029018e-01 -9.18535516e-02  1.67721674e-01  1.31143287e-01
   2.25720704e-01 -2.65859902e-01  6.49298057e-02 -1.44878879e-01
   1.68574676e-01  8.68005529e-02 -1.05915911e-01 -3.63734186e-01
  -1.76785484e-01 -2.56031066e-01 -2.06115335e-01 -9.43271592e-02]
 [ 2.61924595e-01  7.52494931e-02  3.60290706e-02 -2.16081366e-01
  -7.46889770e-01  2.32125789e-01  2.42085338e-01  2.16955524e-02
  -2.33203337e-01 -1.28749013e-01 -1.62538141e-01  3.37613761e-01
   8.03894848e-02 -4.33617711e-01 -3.35136533e-01  4.20496566e-03
  -2.55923957e-01  6.69234172e-02  1.86522484e-01 -8.35242048e-02
   3.83427832e-03  1.14218347e-01  1.31479010e-01  2.18705926e-02
  -1.85161009e-01 -1.06068544e-01 -4.30675954e-01  7.62226805e-03
   3.90145718e-03 -1.22546054e-01 -2.02388659e-01  1.81584563e-02
   2.95595884e-01 -2.38418147e-01 -2.65408039e-01 -1.51808336e-01
   2.03310311e-01 -4.46919166e-02  2.88857758e-01 -3.51045251e-01
  -3.66825819e-01  1.09825440e-01  1.54154226e-01  2.89136678e-01
   2.35009026e-02 -1.41466707e-01 -2.28096589e-01 -1.41196549e-01
  -2.19076052e-01  3.05006534e-01 -3.30595195e-01 -1.01746388e-01
  -2.29135439e-01 -1.98137611e-01  1.60862178e-01 -2.42221236e-01
  -3.67247760e-01  1.91830784e-01  3.94680761e-02 -1.74850345e-01
  -2.46297661e-02 -1.64370582e-01 -6.19350187e-02 -2.23700702e-01
  -3.63807864e-02 -3.72232258e-01 -2.43526056e-01 -1.95286706e-01
   2.06457451e-01 -7.28680268e-02  1.43570099e-02 -2.90384680e-01
  -8.49445462e-02  4.41778190e-02  6.22742437e-02  3.35337281e-01
  -2.96010286e-01  1.91322610e-01  1.01024091e-01 -3.77669424e-01
  -2.49546483e-01  3.29810947e-01 -5.74167334e-02 -9.34153572e-02
  -9.41830724e-02 -1.19510472e-01  2.40658596e-01 -2.08013028e-01
  -2.29786679e-01 -3.04626197e-01 -3.07037979e-01 -1.32957071e-01
   2.59359539e-01 -3.86893302e-01  1.19091213e-01 -3.90159309e-01
  -1.90995976e-01  3.16227898e-02 -2.28892401e-01 -1.08752593e-01
   3.51748884e-01  1.66166708e-01  3.34871672e-02 -2.31282245e-02
  -3.66086394e-01 -5.40681817e-02  1.02779686e-01  1.61404796e-02
   1.79497093e-01 -1.57697693e-01  4.87204734e-03 -2.12464020e-01
   3.14532667e-01 -1.29443482e-01 -3.70670825e-01  2.99490690e-01
  -4.90523189e-01 -3.42244685e-01 -2.40374714e-01 -1.85014710e-01]
 [-2.29705781e-01  2.45162360e-02 -2.69329101e-01  1.91420197e-01
   1.38626695e-01 -2.92659611e-01 -1.53755397e-01  3.22754122e-02
   1.43133923e-01  2.37804223e-02  2.72085577e-01 -3.18847895e-01
   3.50033678e-02  1.80928499e-01  1.28732696e-01 -2.44555801e-01
   2.08608687e-01 -3.21340412e-01  9.66479182e-02  1.37714902e-02
  -1.08002029e-01 -1.41439289e-01 -1.61729783e-01  1.54257128e-02
  -3.52101661e-02  1.37609527e-01 -3.01596135e-01  1.72313359e-02
   4.61552218e-02 -2.05926433e-01 -1.43503577e-01  6.03410639e-02
   3.24946223e-03 -3.84676680e-02 -4.01866809e-03  3.08815595e-02
  -6.12464584e-02  9.25380364e-02 -3.83280590e-02  2.33358368e-01
   2.50495136e-01 -1.79137707e-01 -1.03275804e-02 -1.97958365e-01
   1.33857787e-01  5.17013334e-02  3.71639878e-02  1.48120239e-01
   1.39558449e-01 -2.09146440e-01  1.38574094e-01  2.17120964e-02
   2.83623606e-01  1.30601212e-01 -2.79747903e-01 -1.22764833e-01
   1.46859407e-01 -1.22789420e-01 -2.56603304e-02  3.65783907e-02
   7.62310401e-02  2.26972044e-01  1.17006645e-01  9.77364928e-02
  -2.10579783e-01  1.09178135e-02  2.67448649e-02 -5.25311055e-03
  -3.10060024e-01 -5.57456613e-02  9.23532173e-02  5.11839353e-02
   9.85873565e-02 -5.34118377e-02 -1.32755816e-01 -9.87262502e-02
  -1.16619185e-01  2.48080269e-02  1.24253342e-02 -1.51961558e-02
   1.28085837e-01 -2.94368386e-01  1.57474522e-02  9.44011882e-02
  -2.03004442e-02  1.35133475e-01 -2.78181940e-01  3.74683179e-02
   1.16341993e-01  1.19197898e-01  3.46217230e-02 -4.52022441e-02
  -1.21732622e-01 -1.46423401e-02  8.11561421e-02 -8.02497640e-02
  -1.67602971e-01 -3.35290909e-01  1.87432244e-01 -2.00132132e-02
  -8.94601494e-02 -3.81575197e-01 -8.84614065e-02 -2.80900210e-01
   2.33380795e-01 -1.71433732e-01 -2.78107256e-01 -7.54782632e-02
   1.31974258e-02 -1.11021355e-01  2.04430476e-01 -2.61762649e-01
  -1.88472003e-01 -1.03323102e-01  6.35560676e-02 -1.01800837e-01
   1.31917343e-01 -6.10037558e-02  1.42597184e-01  2.55728532e-02]
 [ 1.50086328e-01  1.46531805e-01  3.23444530e-02  5.25924861e-02
  -2.96819478e-01 -2.27543399e-01  2.71311812e-02 -1.72820672e-01
   2.11010650e-02  9.53696147e-02 -1.31538019e-01 -2.21935466e-01
   2.17255160e-01  7.94757530e-02  5.89953512e-02  1.46834865e-01
  -1.81402162e-01 -1.02886975e-01  1.45474449e-01  2.25619040e-02
   2.25439947e-03  5.37403412e-02 -3.23553686e-03  1.74712360e-01
  -9.13980696e-03  2.71144688e-01 -5.62392950e-01 -9.35357213e-02
   1.65976346e-01  2.55497303e-02 -2.71450728e-01 -1.58043932e-02
  -2.13123307e-01 -2.39320859e-01 -1.66897535e-01  3.79511639e-02
  -6.27159723e-04 -3.69761251e-02 -5.26203774e-02 -7.92243704e-02
  -1.48817031e-02 -1.47752985e-02  2.50085324e-01 -1.76628113e-01
   9.64245410e-04 -1.98872805e-01 -3.69561106e-01  8.62723514e-02
   6.70714006e-02  2.54743248e-01 -7.23272115e-02 -1.54339612e-01
   4.82710041e-02  9.57033262e-02  8.40395093e-02  1.94967221e-02
  -2.09582493e-01  2.86277034e-03  4.36952822e-02  3.28814774e-03
  -2.16695040e-01  1.53808177e-01  1.00695014e-01 -2.59144038e-01
  -1.69800073e-01 -3.80322456e-01  3.97489443e-02 -6.67498484e-02
   1.93646088e-01 -4.16808389e-02  8.56741443e-02 -7.25733340e-02
  -1.23023409e-02  7.15375971e-03  2.36829631e-02  8.26740637e-02
  -2.46596664e-01  1.13506854e-01  8.94609094e-02 -3.41644287e-01
  -9.10209939e-02  1.01109698e-01 -4.31320928e-02  1.03474021e-01
  -1.64119378e-01  2.16432571e-01 -7.48073012e-02  2.27024764e-01
  -1.21071162e-02  3.09255496e-02  1.54067175e-02 -1.33924559e-01
   6.72362326e-03 -3.51333529e-01 -9.32264328e-03 -1.52506633e-02
  -1.59741804e-01 -2.38823593e-01  1.05040200e-01 -9.94051024e-02
  -1.19967446e-01  2.84283385e-02 -6.14781305e-02 -2.51935065e-01
  -3.03839147e-01 -9.09479186e-02 -8.30495432e-02 -2.45236784e-01
   7.28435367e-02 -2.61784554e-01 -3.68499309e-02 -1.26129627e-01
   1.85369313e-01 -4.78847213e-02  1.84568718e-01  1.12871885e-01
  -1.62783712e-01 -3.10002029e-01  1.66899726e-01 -1.88950628e-01]
 [ 1.01585820e-01 -1.76133916e-01  1.33578852e-01 -1.45553369e-02
  -2.96244204e-01  9.72739235e-02 -3.14942986e-01 -1.87838063e-01
  -1.54348999e-01  3.61865699e-01  1.08498894e-02  5.66736981e-02
  -4.98597741e-01 -5.62170669e-02 -2.03345805e-01  2.72343367e-01
  -3.62940907e-01  3.43365818e-02  4.52815086e-01 -2.15134516e-01
  -1.10248439e-01 -1.18966445e-01 -9.04056523e-03 -2.54597992e-01
  -8.09532851e-02  9.86148268e-02 -6.31489381e-02 -1.70013160e-01
  -1.39893025e-01  1.28227934e-01 -3.70824933e-02  1.46925459e-02
  -1.79754775e-02 -4.11234468e-01 -3.17063928e-01  2.38780409e-01
  -3.04128647e-01  9.15688649e-02  3.83494906e-02 -4.10176188e-01
  -4.35957253e-01  1.37677938e-01  3.65425318e-01  1.35908946e-01
  -2.03096732e-01 -6.19604886e-02 -1.85082659e-01 -2.26729378e-01
  -1.17596708e-01 -2.23385915e-01 -2.74288476e-01 -2.35767856e-01
  -3.67181271e-01 -1.53886583e-02  8.75702351e-02  4.31902528e-01
  -2.76506513e-01  9.12502781e-02  4.90767539e-01 -5.41579016e-02
  -3.67118478e-01 -4.43165414e-02 -3.32843423e-01 -5.26843369e-01
  -1.79048046e-01 -1.13444693e-01 -3.92489135e-01 -4.16033059e-01
   6.86520152e-03  2.44686678e-02 -1.98296085e-01 -6.56772330e-02
  -2.22127914e-01 -2.91361153e-01 -1.40320688e-01 -1.51614890e-01
  -3.62885773e-01  7.76833594e-02 -4.41933163e-02 -6.94081113e-02
  -1.76566958e-01  2.04630755e-02  9.10818353e-02  3.87885123e-02
  -1.00850366e-01  5.27527966e-02  4.60056067e-02 -6.85652271e-02
  -2.88783193e-01 -6.45569190e-02 -1.49975240e-01 -3.53206247e-01
   3.33021283e-01 -1.32749259e-01 -1.39249071e-01 -9.74007547e-02
  -3.35275084e-02 -5.34943230e-02  2.53032036e-02 -2.73146778e-01
  -1.26018122e-01  7.70680159e-02 -3.06800663e-01  5.40268682e-02
  -2.01118112e-01 -9.70988348e-02  5.31338947e-03 -3.99279110e-02
   1.44604996e-01 -3.59621882e-01 -9.20125991e-02 -1.49640422e-02
   3.69389094e-02 -1.78504363e-02 -9.77898091e-02 -4.26798850e-01
  -3.27829391e-01 -2.86094904e-01 -9.25505981e-02 -2.22070143e-01]
 [ 1.23358769e-02 -2.70985991e-01  2.18848124e-01 -3.12261373e-01
  -3.94109398e-01  1.13076225e-01 -6.61059320e-01 -1.17455930e-01
   1.90580711e-02  4.20545727e-01  6.02388231e-04  1.32951200e-01
  -5.16218007e-01 -8.02098885e-02  2.88480204e-02  1.74400032e-01
  -2.74332970e-01  1.38450325e-01  1.52778774e-01 -1.78964153e-01
  -1.51280984e-01  7.97831491e-02 -1.23059221e-01 -5.10356605e-01
  -1.29204154e-01  2.13656485e-01  4.28376794e-02  1.20363198e-02
  -1.94119811e-01  3.45029950e-01 -2.08316043e-01  1.04537264e-01
  -9.08306241e-02 -4.41833436e-01 -3.73215020e-01  2.50725985e-01
  -5.74876130e-01 -3.07065826e-02  3.95111367e-02 -4.48114723e-01
  -4.08719629e-01  3.38867962e-01  3.47714603e-01  1.24909200e-01
  -2.39185393e-01 -1.43310204e-01 -1.58425465e-01 -2.44836539e-01
  -1.93636131e-03 -5.46791494e-01 -3.16145211e-01 -2.71314859e-01
  -4.88007218e-01  8.13792944e-02  1.56955495e-01  3.21684152e-01
  -3.33684921e-01  9.26976055e-02  5.75479150e-01 -5.20512871e-02
  -3.67434710e-01  2.04986677e-01 -5.39890110e-01 -4.44806069e-01
  -9.07450169e-02  1.69260632e-02 -3.20985615e-01 -5.46271861e-01
   2.34827120e-02  3.64119448e-02 -2.02476576e-01 -1.52882040e-01
  -3.79367799e-01 -2.66917557e-01 -3.73952161e-03 -4.46399957e-01
  -3.16938967e-01 -9.42554325e-03 -4.53337952e-02 -1.18812375e-01
  -3.29626977e-01 -1.24333479e-01  1.31555811e-01 -8.91937595e-03
  -1.05726868e-01  5.12524433e-02 -3.31570990e-02 -8.61238502e-03
  -1.40785351e-01  4.26975563e-02 -2.58586586e-01 -3.51898253e-01
   5.15875280e-01  4.95351627e-02 -1.72678426e-01  1.08577214e-01
   5.94263673e-02  7.18721375e-02  2.10882463e-02 -3.01897019e-01
  -2.01864257e-01  2.84262355e-02 -2.16873899e-01  1.88008890e-01
  -4.84822094e-02 -1.09990612e-01  1.51038989e-01  9.52958241e-02
   2.55154997e-01 -3.30131799e-01  4.16889675e-02 -3.58158723e-02
  -7.52971321e-02  1.02161199e-01 -1.02044746e-01 -6.11189604e-01
  -3.57795119e-01 -2.21024767e-01 -9.02937055e-02 -1.15664378e-01]
 [ 1.86491519e-01  1.86452735e-02  1.50111854e-01 -1.27762586e-01
  -5.58887005e-01  1.40877292e-01 -1.13638259e-01 -1.08271293e-01
  -1.56811103e-01  1.28128648e-01 -1.02924041e-01  1.20378122e-01
  -2.43436396e-01 -2.36955062e-01 -2.13551670e-01  7.99062774e-02
  -3.21315765e-01 -8.10605660e-03  3.07814002e-01 -1.69036970e-01
  -2.57732958e-04 -1.46076465e-02  1.13493530e-02 -3.06327224e-01
  -1.81725502e-01 -2.14008652e-02 -2.41459876e-01  2.87139490e-02
  -5.47022708e-02  1.00830927e-01 -2.80548394e-01  3.66226435e-02
   2.43513852e-01 -3.53304148e-01 -3.12849492e-01  1.11848444e-01
  -2.37119086e-02 -4.90733497e-02  4.44051139e-02 -4.62817401e-01
  -3.87516946e-01  1.64016113e-01  3.22948217e-01  3.12657088e-01
  -1.76141724e-01 -6.73635304e-02 -2.97432333e-01 -1.06175967e-01
  -9.18042809e-02  2.44601350e-02 -2.03826845e-01 -1.63530663e-01
  -3.08801800e-01 -2.51578718e-01  2.34629419e-02  4.84075397e-04
  -4.43573266e-01  1.82226494e-01  3.13206732e-01 -2.86069792e-02
  -8.54555741e-02  1.28148152e-02 -3.02041113e-01 -1.65989608e-01
  -2.43669838e-01 -2.51944542e-01 -3.81972313e-01 -4.66844022e-01
   1.19065074e-02 -1.64789036e-02 -1.87739551e-01 -2.23931044e-01
  -2.02657253e-01 -2.12279484e-01 -4.66252975e-02  1.04224436e-01
  -2.25977466e-01 -2.35903226e-02 -1.12354249e-01 -2.86421746e-01
  -2.49470308e-01  4.91261147e-02  7.53875151e-02 -1.06080405e-01
  -7.09890127e-02 -1.25345379e-01  2.04455797e-02 -1.60377949e-01
  -5.55957370e-02 -1.50470763e-01 -1.72230691e-01 -1.70810938e-01
   4.75229502e-01 -1.29345924e-01  8.71349424e-02 -6.89540356e-02
  -7.48239830e-02  9.13756639e-02 -1.22971889e-02 -3.81925225e-01
  -1.91681553e-02  5.42276837e-02 -3.18278857e-02  3.47162671e-02
  -2.78419226e-01 -2.19107047e-01  1.18308617e-02 -1.82472188e-02
   1.39049336e-01 -2.77117938e-01 -3.25958468e-02 -2.58337706e-01
   7.72588104e-02 -1.49485213e-03 -1.33553177e-01 -1.95530653e-01
  -3.33166689e-01 -4.39068079e-01 -8.26265514e-02 -1.68571427e-01]
 [-7.37634152e-02 -3.95229638e-01  2.28238568e-01 -5.86647019e-02
  -5.19537628e-01  1.45975535e-03 -4.27765578e-01  6.76335469e-02
   7.74187446e-02  2.56262183e-01  2.29026936e-02  7.21727610e-02
  -5.00516415e-01 -1.84545472e-01 -2.30082437e-01  1.74317449e-01
  -3.87220144e-01  6.19451813e-02  1.94995746e-01 -3.16177994e-01
  -3.33031088e-01  1.50854826e-01 -1.51473939e-01 -2.03675255e-01
  -2.22146630e-01 -1.87650621e-02  1.13678440e-01  1.33443236e-01
  -3.45391184e-01  4.07895297e-01 -2.05042332e-01  1.84527785e-01
   1.62555084e-01 -1.94280654e-01  4.38881200e-03  4.04140919e-01
  -3.77820700e-01 -1.33372456e-01  1.85619265e-01 -1.52112409e-01
  -2.74659783e-01  2.28151560e-01 -1.04466861e-03  7.93722719e-02
  -1.90028429e-01  4.52345051e-03 -2.18215808e-01 -1.37446016e-01
  -2.26817861e-01 -5.15075624e-01 -3.15888256e-01 -3.23787212e-01
  -2.11076945e-01 -1.89053431e-01  1.86537772e-01  1.66739196e-01
  -3.77742499e-01  2.33121336e-01  2.19025970e-01 -1.95694953e-01
   2.90262885e-02  3.82857881e-02 -3.52933884e-01  3.25051025e-02
  -1.28712833e-01 -4.25558269e-01 -2.18793675e-01 -6.37113512e-01
  -8.71910378e-02 -8.63384630e-04 -2.66133547e-01 -2.40572274e-01
  -1.64825663e-01  4.63610544e-04 -2.40610018e-01 -3.45599324e-01
  -3.79942730e-02  3.41396779e-02  1.22751273e-01 -2.51937777e-01
  -3.73162687e-01 -1.68934032e-01  2.23750055e-01  4.29322128e-04
  -2.04175949e-01 -6.74672574e-02  4.38214801e-02 -1.01972237e-01
  -8.49088132e-02 -1.12487324e-01 -4.67832536e-01 -2.46322259e-01
   2.21486866e-01 -3.20096374e-01  1.46288767e-01 -1.26329750e-01
  -3.65609711e-04  6.57922179e-02 -1.55461475e-01 -1.72349751e-01
   6.23794161e-02 -1.12654209e-01 -1.52925491e-01  2.68995047e-01
  -2.08206356e-01 -2.80975848e-01  1.38115317e-01  2.11741686e-01
   3.43906611e-01 -2.50440866e-01 -2.76542567e-02 -4.43264633e-01
   1.58035934e-01 -3.47684585e-02 -2.85898030e-01 -3.28407168e-01
  -3.87650400e-01 -2.87545204e-01 -1.27269372e-01 -5.12084365e-02]
 [ 1.51799656e-02 -1.27631605e-01  1.79797336e-01 -1.92015767e-01
  -2.55297750e-01 -2.30602045e-02 -6.44708276e-01 -1.43836081e-01
   3.99664557e-03  1.96937725e-01 -1.68772280e-01 -3.92675661e-02
  -5.92097402e-01  8.29074308e-02  7.73173347e-02  2.44650677e-01
  -3.12286735e-01  2.68953383e-01  8.92177299e-02 -1.00549810e-01
  -3.78638413e-03  2.75903586e-02 -1.58897623e-01 -5.03236115e-01
  -3.42556909e-02  1.38553739e-01  1.13507032e-01 -1.84185341e-01
  -2.41280079e-01  4.31210011e-01 -6.76537454e-02  4.31684256e-02
  -6.59999577e-03 -1.15330823e-01 -2.23881081e-01  1.36231795e-01
  -5.49080908e-01  1.24889873e-01 -1.32234544e-01 -4.05978709e-01
  -4.95854706e-01  2.18859300e-01  1.66858613e-01  2.35822544e-01
  -2.94977963e-01 -1.22184098e-01 -1.08460695e-01 -2.05253467e-01
  -1.44356027e-01 -5.91704845e-01 -1.87478766e-01 -1.84326038e-01
  -4.31109458e-01  1.03176817e-01  2.23799810e-01  2.36928016e-01
  -3.11341822e-01 -7.59993047e-02  3.70568275e-01  6.14648722e-02
  -2.67466307e-01 -7.65899718e-02 -5.02410293e-01 -4.32484269e-01
  -1.67012975e-01 -6.43844008e-02 -3.35682929e-01 -4.59430248e-01
   1.30249158e-01 -8.20744261e-02 -2.59898126e-01 -3.56625617e-02
  -2.80401558e-01 -3.26417655e-01 -7.53622800e-02 -4.58743602e-01
  -2.26766869e-01  5.62235042e-02 -1.63053334e-01 -3.34337279e-02
  -1.99289292e-01  4.02262062e-02  7.60061368e-02  2.05118805e-02
  -8.29657763e-02  1.62890069e-02  8.37044045e-03  1.39070362e-01
  -1.58587456e-01 -1.70142397e-01 -1.52749345e-01 -1.94541171e-01
   4.31594729e-01  1.42444074e-01 -5.93826212e-02  6.10992163e-02
   1.85402423e-01  8.66834000e-02  7.69329676e-03 -3.96019250e-01
  -7.08625093e-02 -7.26485029e-02 -2.32132301e-01  1.91930622e-01
  -1.22379661e-01  4.14023884e-02  2.36862361e-01  7.08635077e-02
  -4.10881899e-02 -2.02993050e-01 -1.71988636e-01  2.14668676e-01
   1.59358848e-02 -7.39919916e-02 -9.23021659e-02 -6.16609335e-01
  -1.45684168e-01 -1.63171709e-01 -2.12759256e-01 -2.50893593e-01]
 [-5.43020293e-02 -2.66298026e-01  2.25169346e-01 -1.72302142e-01
  -1.77954584e-01 -4.49039042e-03 -6.41330481e-01 -1.40762284e-01
   3.93262655e-02  5.97476922e-02 -2.11248249e-02  5.25750816e-02
  -6.14522576e-01  1.32389171e-02  6.91303704e-03  2.70974338e-01
  -1.78698570e-01  2.48175532e-01  1.95939481e-01 -1.46070555e-01
  -2.57707704e-02  5.16461134e-02 -2.39534736e-01 -4.24586028e-01
  -5.15941270e-02  2.18007311e-01  2.25213036e-01 -1.96967274e-01
  -7.95707032e-02  3.68377179e-01 -1.95171218e-02 -7.17677996e-02
  -1.04432426e-01 -1.59951031e-01 -3.42064053e-01  2.78768271e-01
  -4.71053779e-01 -9.73328725e-02 -6.02500290e-02 -3.82378578e-01
  -2.51514673e-01  2.86299169e-01  1.33944139e-01  8.52266401e-02
  -3.11487913e-01 -7.39998892e-02 -3.35690081e-02 -2.30196953e-01
   4.10134308e-02 -4.64333445e-01 -1.16079047e-01 -2.58021027e-01
  -3.29625458e-01 -6.59186319e-02  1.71884343e-01  3.88768792e-01
  -2.63545632e-01 -5.94130643e-02  5.21598876e-01 -1.89613439e-02
  -3.05336952e-01 -8.27406719e-02 -3.34110528e-01 -4.30815250e-01
  -9.24138129e-02  9.55695957e-02 -4.40573543e-01 -3.55999798e-01
  -9.96814966e-02  9.75584313e-02 -1.45815238e-01 -5.98429553e-02
  -3.94320309e-01 -3.94853987e-02 -1.54790223e-01 -6.39988542e-01
  -2.02293515e-01 -1.94853079e-02 -9.71541777e-02  4.74304035e-02
  -1.22832365e-01 -1.07000634e-01  5.52933738e-02  6.99424371e-02
   1.30939949e-02  1.14614792e-01 -9.08418596e-02  5.32484651e-02
  -1.46378547e-01 -2.99237482e-02 -6.32715374e-02 -3.47425550e-01
   5.65161347e-01  2.09350381e-02 -2.12596834e-01  1.42904088e-01
   1.78884581e-01  1.45565253e-02  7.74246529e-02 -4.54260141e-01
  -1.25321895e-01  5.06491214e-02 -1.18832871e-01  1.67357028e-01
   3.71647105e-02  4.04119380e-02  9.47867557e-02 -5.87124862e-02
   1.55950889e-01 -2.47821003e-01 -2.10517067e-02  2.07269385e-01
  -2.04106748e-01  9.03413445e-02 -1.16035178e-01 -6.97549164e-01
  -2.40489349e-01 -5.65622747e-02 -1.85618490e-01 -1.89862370e-01]
 [ 1.56290308e-01  4.63493960e-03  1.35986671e-01 -3.88998777e-01
  -6.15316868e-01 -5.54315373e-02 -7.00672418e-02  5.13668656e-02
  -3.72527689e-02  1.34818897e-01 -9.08717811e-02  1.84317976e-01
  -2.63069838e-01 -1.80506736e-01 -6.84316456e-02  2.16096759e-01
  -5.50502062e-01  7.08372444e-02  2.61814952e-01 -9.72338617e-02
  -1.16773017e-01  2.57021040e-01  1.31242543e-01 -2.63840199e-01
  -1.05474554e-01 -5.29530086e-03 -4.21645641e-01  1.35586236e-03
  -1.30877644e-01  1.33628175e-01 -2.64559627e-01  4.79264297e-02
   1.82949245e-01 -3.17990810e-01 -1.13129511e-01  4.59640436e-02
   4.39325869e-02 -7.02754930e-02  2.76692122e-01 -5.75669587e-01
  -5.54236174e-01  2.13479906e-01  1.18365400e-01  5.81822097e-02
  -2.33457729e-01 -2.50122458e-01 -3.01246792e-01 -2.74492145e-01
   3.24518196e-02  1.05563654e-02 -4.49320197e-01 -1.33821368e-01
  -4.71466690e-01 -1.35979682e-01  1.91199958e-01  1.54437870e-01
  -5.61206996e-01  1.63541511e-01  2.97043204e-01 -3.69694494e-02
  -5.49358875e-02  7.39343464e-02 -2.15157196e-01 -1.17533721e-01
  -2.85902023e-01 -3.59072626e-01 -2.88243353e-01 -5.17516553e-01
   5.37351593e-02  3.67294298e-03 -7.29262754e-02 -3.90503854e-01
  -2.26525486e-01 -2.83545166e-01  1.60812601e-01  6.38491884e-02
  -1.95312485e-01 -7.56013915e-02  5.80685511e-02 -4.18182760e-01
  -3.07315230e-01  6.71949536e-02 -2.78232787e-02 -2.10750446e-01
   3.63942096e-03 -4.27399091e-02 -1.41996751e-02 -5.73239923e-02
   2.95974538e-02 -7.39416480e-02 -1.73054799e-01 -2.19169930e-01
   5.21535933e-01 -4.09149140e-01  6.52243122e-02  6.13010116e-02
  -9.16161984e-02  1.15348577e-01 -1.35558963e-01 -4.47283626e-01
   1.94638502e-02  7.04229474e-02 -8.60933363e-02  3.68791143e-03
  -3.69552881e-01 -2.59456366e-01  1.38439536e-01 -1.69079557e-01
   2.23454654e-01 -2.81990498e-01 -1.25898674e-01 -5.29104471e-01
   1.23733491e-01 -7.70423934e-02 -1.93448469e-01 -1.66076690e-01
  -4.79572356e-01 -4.06644046e-01 -1.36280522e-01 -2.56098866e-01]
 [-4.97688025e-01 -2.66193658e-01 -4.06282425e-01  3.17655325e-01
   8.03645998e-02 -2.66345769e-01 -2.06857547e-01  2.54023783e-02
   1.97092906e-01  1.53287612e-02  4.98950720e-01 -2.43979648e-01
   4.29532444e-03  4.70741913e-02 -3.17293741e-02 -2.89634287e-01
   3.87032062e-01 -3.22881371e-01 -1.01864748e-02 -4.85779531e-02
  -4.59749214e-02 -2.46486366e-01 -3.09476584e-01  9.60156620e-02
   7.69286081e-02  4.59360816e-02  3.60599011e-02  2.57533848e-01
  -1.76248029e-01 -1.95267990e-01 -6.23389222e-02  2.38593906e-01
  -5.97460568e-02 -1.16570508e-02  4.56440449e-02  8.00491050e-02
  -1.80954814e-01 -1.12427704e-01  1.17959799e-02  2.75661021e-01
   4.02723759e-01 -2.34115541e-01 -1.60089731e-02 -2.18736023e-01
   2.77482390e-01  2.13580485e-02  7.50842318e-02  2.75948852e-01
   4.43743877e-02 -6.74926341e-02  3.64661843e-01  1.49340564e-02
   3.78745735e-01  3.38549092e-02 -3.48038137e-01 -1.35054603e-01
   2.69408196e-01 -3.85496356e-02 -1.34280780e-02 -8.27592835e-02
  -1.14903562e-02  2.41507515e-01  1.11995628e-02  1.05740517e-01
  -9.59916487e-02  1.16639562e-01  1.72222540e-01  1.12634758e-02
  -4.44354951e-01 -1.30604640e-01  1.89279363e-01  9.97994915e-02
   8.90999660e-02 -1.37313768e-01 -3.08197021e-01 -2.27760136e-01
   5.53529412e-02  2.38758668e-01  1.47906616e-01 -8.10112432e-02
   2.53955126e-02 -5.46552658e-01  1.68109655e-01 -8.10221210e-02
   1.03146276e-02  1.55718774e-01 -2.78833151e-01 -7.91172311e-02
   6.46129027e-02 -7.87916966e-03 -8.75412598e-02  5.59050366e-02
  -7.51423761e-02  6.88897595e-02  3.00226510e-02 -1.18334584e-01
  -4.76680547e-02 -2.32463107e-01  1.12115495e-01  9.73107591e-02
   1.16847597e-01 -3.44864070e-01  6.97200224e-02  7.48977019e-03
   1.90654412e-01 -2.40562513e-01 -3.00869942e-01  9.87253264e-02
  -1.09668076e-02 -1.05029918e-01  3.46669018e-01 -3.26951832e-01
  -3.32453549e-01  1.70395076e-02 -6.49018437e-02 -3.76777761e-02
   3.39172542e-01 -3.67447175e-02  6.44887462e-02  2.03431889e-01]
 [ 4.49182928e-01  7.37992376e-02 -7.60333017e-02 -1.64967135e-01
  -5.06282091e-01  7.71292970e-02  1.32841542e-01 -2.64940858e-02
  -2.09027737e-01  7.66465813e-02 -1.76429227e-01  3.21043611e-01
   2.02966407e-01 -2.56092638e-01 -2.46543035e-01  6.21534847e-02
  -2.59671688e-01  7.20008684e-04  2.60739714e-01  4.41845804e-02
   1.98679995e-02  5.76252230e-02  1.89648360e-01  2.46314406e-01
  -2.33933240e-01 -5.31627089e-02 -3.18094850e-01  1.33172065e-01
   1.61181226e-01 -1.82110175e-01 -1.36104047e-01  5.89716844e-02
   8.99714604e-02 -3.29797924e-01 -2.24155620e-01 -1.76883593e-01
   1.71835840e-01 -1.08398214e-01  2.45586142e-01 -1.47639632e-01
  -2.07950264e-01  2.17469987e-02  2.52742767e-01  2.67191350e-01
   1.42199874e-01 -3.93662713e-02 -3.19156080e-01 -1.67637408e-01
  -1.99354291e-01  3.32322687e-01 -1.38502762e-01 -1.69812858e-01
  -2.42479265e-01 -3.10503185e-01  5.21134073e-03 -2.37931535e-01
  -3.16645324e-01  9.31115821e-02  5.16463406e-02 -2.53006935e-01
  -1.49872214e-01 -9.55147296e-02  1.67840067e-02 -3.18588674e-01
   6.35443814e-03 -3.25634271e-01 -2.71590017e-02 -1.76922809e-02
   2.99243361e-01 -1.88563839e-01 -5.08378185e-02 -1.00749508e-01
  -2.35694066e-01  2.56338596e-01  1.58906952e-01  2.96963185e-01
  -2.63211519e-01 -1.15643796e-02  3.73258069e-02 -3.15224290e-01
  -1.01434357e-01  3.20494652e-01  1.26733437e-01 -1.00795209e-01
  -5.96365258e-02 -1.40882879e-01  1.41325325e-01 -1.95963383e-01
  -2.05493852e-01 -1.22120082e-01 -1.86828256e-01 -3.02409679e-01
   1.72961503e-01 -5.11916995e-01  2.31851295e-01 -3.46757621e-01
  -9.99230593e-02  1.29474565e-01 -2.35545710e-01 -2.74133105e-02
   1.02978118e-01  5.19870967e-02 -3.44759114e-02  1.01760644e-02
  -4.53984112e-01 -4.99741845e-02  1.74745515e-01  7.76812732e-02
   1.40174210e-01 -1.26915693e-01 -2.35507898e-02 -7.15845451e-02
   4.45060015e-01 -1.42791480e-01 -2.16409415e-01  1.96963772e-01
  -4.30815786e-01 -3.91182572e-01 -9.41228569e-02 -2.03621298e-01]
 [-1.41690627e-01 -4.26658355e-02 -1.47067368e-01  1.69163406e-01
  -7.01617822e-02 -2.68505543e-01 -1.14367306e-01  5.69269434e-02
   7.49244392e-02 -1.15548134e-01 -2.77852220e-03 -1.99395150e-01
   9.74477455e-02  4.79249507e-02  7.11592138e-02 -1.07557543e-01
   2.22563408e-02  3.70006263e-02  1.30411968e-01 -3.39862742e-02
   8.80794078e-02 -3.22243907e-02 -5.19731343e-02  4.99668904e-02
   6.24945015e-02  7.49898255e-02 -5.93977809e-01 -4.42843251e-02
  -1.63279310e-01 -1.56097263e-01 -1.14557430e-01  1.25659838e-01
   6.34761825e-02 -2.38007419e-02  1.44154757e-01 -3.28032412e-02
  -5.93017340e-02  2.21946798e-02  4.84693572e-02  1.99256793e-01
   4.81625088e-02 -5.17822579e-02  8.97871982e-03 -1.83910668e-01
  -5.76513633e-03 -1.29940689e-01 -2.60786444e-01  7.24441111e-02
   3.04870587e-02 -1.56538785e-01 -4.45858724e-02  5.10671660e-02
   2.21446365e-01  1.23015262e-01  7.44293630e-02  1.19960651e-01
   3.85939255e-02 -7.04825744e-02  6.34481162e-02  1.26934409e-01
   1.63937241e-01  1.98374808e-01  1.49218626e-02  9.08348486e-02
  -1.17559254e-01 -2.70061731e-01  1.52217254e-01  1.07494205e-01
  -1.91621870e-01  3.47566861e-03  2.70637171e-03 -1.01534486e-01
  -3.62066217e-02 -6.19579665e-02 -1.77100599e-01 -4.43885215e-02
   7.05430582e-02  8.21337998e-02 -1.33008420e-01 -1.18299723e-01
   1.70321185e-02 -1.17206268e-01  1.21950142e-01 -1.27578050e-01
  -3.64451855e-02  9.23974589e-02 -3.46988402e-02  1.46929128e-02
   1.07615069e-01 -5.08800335e-03 -8.06423486e-04 -1.31710730e-02
  -2.25404948e-01 -1.82109028e-01  1.07230805e-01  7.48226866e-02
  -4.63923067e-02 -1.46483034e-01 -2.55931884e-01  3.25230695e-02
  -1.52188450e-01 -2.01265901e-01  9.03546438e-02 -3.78441125e-01
  -5.52124344e-02 -2.49271587e-01 -3.21661122e-02 -1.02372818e-01
  -9.99172628e-02 -9.46318582e-02  9.06810239e-02 -4.59324032e-01
   4.54018861e-02 -2.34163046e-01  9.66288447e-02  7.04836100e-02
  -4.05293889e-02 -2.95977332e-02  1.97585508e-01  3.37291360e-02]
 [ 1.66053101e-01  1.08689085e-01  1.74810424e-01 -1.17521800e-01
  -4.46565479e-01  3.78914922e-02  1.31716192e-01 -4.50641699e-02
  -9.61861014e-02  5.91588467e-02 -2.07730941e-02 -1.66058347e-01
   1.17364779e-01  1.16763592e-01 -5.13101481e-02  2.51826286e-01
  -1.79343238e-01  5.26840538e-02  1.25116453e-01 -3.43557335e-02
   5.67528978e-03  8.25159475e-02 -1.12663388e-01 -1.15856670e-01
  -6.01978078e-02  2.17302460e-02 -8.00733715e-02 -3.72710042e-02
   2.22217850e-02  8.29670355e-02 -1.76725999e-01 -1.46715343e-01
  -1.26382843e-01 -3.38224381e-01 -1.43445402e-01 -2.13696864e-02
   7.66012892e-02  1.62806571e-01 -1.23844303e-01 -1.60249934e-01
  -2.43327171e-01  3.08335274e-01  1.79026917e-01  8.09934884e-02
  -2.10566759e-01 -1.10672176e-01 -1.46373942e-01 -9.55342203e-02
   6.72344714e-02  1.36092946e-01 -2.26608962e-01 -1.70713529e-01
  -1.95667699e-01 -4.02937084e-02  1.21708818e-01 -5.82370497e-02
  -1.71102434e-01  4.75129150e-02  2.20869407e-01 -4.41464894e-02
  -5.45874462e-02  1.33017927e-01 -1.99057862e-01 -2.60986686e-01
  -2.69014329e-01 -1.80126727e-01 -4.91513431e-01 -2.52681404e-01
  -4.33985926e-02 -7.69881457e-02 -1.84967071e-02 -1.54525444e-01
  -2.99351513e-01 -1.17529735e-01  1.14352643e-01  1.95597768e-01
  -2.84468234e-01  1.27689138e-01 -7.04181716e-02 -2.23568127e-01
  -7.75237754e-02 -4.48894687e-02 -3.93195190e-02  2.51032591e-01
   4.69847172e-02  1.07178807e-01  5.32836318e-02  9.91202667e-02
  -8.52095615e-03  4.07194793e-02 -7.20898136e-02 -1.14539959e-01
   2.44390279e-01 -1.42258078e-01 -1.31722018e-02  6.76399842e-02
   1.46993548e-02 -1.46668851e-01  3.30544204e-01 -2.31126249e-01
  -1.55308917e-01  2.00166944e-02  2.53248177e-02 -1.04246914e-01
  -2.05823317e-01 -9.31590647e-02 -7.65608922e-02 -5.69578484e-02
   1.04602151e-01 -1.23257004e-01  5.69029339e-02 -1.90175459e-01
  -6.09543510e-02  6.57095537e-02  4.17722017e-02  1.07989274e-01
  -2.05172405e-01 -2.31028065e-01 -3.46947983e-02 -3.32764596e-01]
 [-1.81303486e-01  1.67611808e-01  2.85096794e-01 -1.54813573e-01
  -2.10092604e-01 -1.15183122e-01  3.10755521e-01 -2.86693215e-01
   1.07186228e-01  5.84666990e-02  2.95336638e-02 -9.73011851e-02
   1.37675796e-02  2.63701417e-02  1.72686175e-01  8.45282823e-02
  -2.58840412e-01 -2.27300480e-01  7.94701353e-02 -7.58366659e-02
  -3.59463431e-02 -8.11214894e-02 -1.51781932e-01  2.79024728e-02
   1.04167908e-02 -9.94202867e-02 -7.01360479e-02  1.13202948e-02
  -2.70616651e-01 -4.27650996e-02 -5.10515392e-01  1.31942391e-01
   4.30701599e-02 -1.30288363e-01 -6.47172853e-02 -1.27217740e-01
   2.09263280e-01  3.29695665e-03  1.26744397e-02 -1.93991631e-01
  -2.83040315e-01  2.44890735e-01  3.09464127e-01 -5.03134774e-03
   3.64725776e-02 -3.51863950e-01 -3.78486991e-01  1.65415928e-01
  -2.69222353e-02  4.08388317e-01 -2.64661163e-01 -4.40171687e-03
  -7.37873763e-02 -1.03604615e-01 -1.38378158e-01  4.23886664e-02
  -2.44294778e-01  3.99569012e-02  3.97467017e-02  1.51215363e-02
   2.75209308e-01  3.37205946e-01 -1.53933212e-01  3.65060642e-02
  -3.64736527e-01 -4.53306794e-01 -2.13827342e-01 -6.91688210e-02
  -2.77880639e-01  1.49733499e-01 -9.28606540e-02 -5.74276969e-02
  -1.47328511e-01  4.08564992e-02 -1.59324929e-01  4.57394809e-01
  -7.81925619e-02  3.41315120e-01  1.96778730e-01 -4.81040835e-01
  -1.84152856e-01 -3.64958137e-01  1.40242921e-02 -1.13159336e-01
   2.21313953e-01  1.42073017e-02 -2.07275227e-01 -2.08639041e-01
   5.59744565e-03 -3.43287215e-02 -1.96412895e-02  8.69824067e-02
   1.09326459e-01 -3.78153294e-01 -1.89833254e-01  3.22890468e-02
  -4.73733574e-01 -2.41454437e-01  6.50450066e-02 -2.41595823e-02
   1.06171414e-01 -1.26259178e-01 -1.21068507e-01  2.06674337e-01
  -1.29958093e-01 -2.27345049e-01 -6.43983632e-02 -2.29772583e-01
   3.75580117e-02  7.31172934e-02  4.80187871e-02 -5.72960734e-01
  -1.37938619e-01 -1.32931009e-01 -3.60266975e-04  9.56874788e-02
  -1.08193614e-01 -1.53377265e-01  1.05362222e-01  6.09700903e-02]
 [ 8.08127671e-02 -5.32133579e-02  4.64716703e-02 -2.38685720e-02
  -1.90923393e-01  8.82741213e-02 -1.76705867e-01 -7.85861164e-02
   1.57023832e-01  7.27166608e-02 -9.41863209e-02 -1.22968279e-01
  -5.97754419e-02  6.49832562e-02 -2.08880510e-02  1.24535225e-01
  -1.94601625e-01 -1.69201657e-01  9.08564925e-02  2.01732968e-03
  -1.47060573e-01 -1.35599207e-02  3.39669213e-02 -1.37373030e-01
  -1.35700315e-01 -7.59397969e-02 -3.01133450e-02  1.12223573e-01
  -8.03641304e-02  1.42786443e-01 -7.04853907e-02 -2.59481855e-02
  -1.05857393e-02 -1.73240185e-01 -1.67037383e-01  1.78331107e-01
  -5.06702773e-02 -7.56364986e-02 -4.17949930e-02 -1.74004853e-01
  -1.16591662e-01  1.36958092e-01  1.68447465e-01  1.11062199e-01
  -1.11763962e-01  1.02647231e-03 -1.24442481e-01  7.08504915e-02
  -1.51672170e-01  8.62581059e-02 -8.50679725e-02 -6.48868736e-03
  -1.19397931e-01 -1.90520346e-01 -1.60614047e-02  3.37901302e-02
  -9.95252356e-02  1.96968839e-01  1.70986317e-02 -2.04980299e-01
  -1.24305166e-01  3.88535224e-02 -2.54458606e-01 -2.19029203e-01
  -1.36459738e-01 -1.14914887e-01 -3.07417423e-01 -8.35860446e-02
   1.18936040e-02 -5.27347028e-02  1.47246188e-02  7.77662024e-02
  -1.41364977e-01 -1.50834873e-01 -4.50946465e-02  9.87870321e-02
  -7.20228478e-02  2.09382344e-02 -2.66062412e-02 -2.04670891e-01
  -7.85256848e-02  5.09884208e-03 -6.21913280e-03 -5.80271222e-02
  -4.98200729e-02 -9.28491950e-02 -1.12207919e-01 -8.64599496e-02
  -6.48475718e-04 -5.90178780e-02 -8.65908116e-02 -1.76972806e-01
   2.95437843e-01  2.29601264e-02 -1.55947074e-01  7.38284066e-02
   1.10988710e-02 -2.98715346e-02  2.31226943e-02 -1.51927173e-01
   8.98515284e-02 -7.17392191e-02 -8.61532018e-02  1.74794152e-01
   2.81728152e-02 -8.51038918e-02 -1.45054877e-01  8.21885839e-02
   8.14420357e-02 -1.90009668e-01  5.50468490e-02 -2.11766660e-02
   6.69919178e-02  1.64838955e-01 -2.55781133e-02 -7.02187093e-03
  -6.43599927e-02 -5.59209287e-02 -2.00644433e-01 -7.92944208e-02]
 [ 2.32154921e-01  1.96556836e-01 -1.85321078e-01  1.00145839e-01
  -3.27778459e-01  1.24169245e-01  2.28239805e-01 -3.86282541e-02
  -5.44796810e-02 -2.55033553e-01 -6.31313846e-02  2.67569959e-01
   3.51864845e-01 -1.73974782e-01 -1.01657376e-01 -1.11261651e-01
  -1.79979011e-01 -7.75874779e-02  1.21975467e-01  1.31620243e-01
   2.72180103e-02  7.71277845e-02  1.79982573e-01  2.48849243e-01
  -7.79312402e-02 -3.25772941e-01 -1.77830264e-01 -2.71089375e-03
   3.48533206e-02 -3.16922039e-01 -1.00700304e-01 -9.37849749e-03
   2.01449737e-01 -1.40967324e-01 -3.24845575e-02 -3.53474706e-01
   3.27808589e-01  1.71658807e-02  1.25362843e-01 -3.56114353e-03
  -1.16887644e-01  7.19578564e-03 -8.64129514e-04  3.01697552e-01
   7.68053345e-03 -1.29302084e-01 -2.12768674e-01  1.11969508e-01
  -1.79617733e-01  3.70560288e-01 -9.43981484e-03 -9.08058882e-02
   1.82292033e-02 -3.64773721e-01 -5.62155955e-02 -1.69439480e-01
  -2.57160217e-01  6.17225021e-02 -1.40408501e-01 -2.73371100e-01
   2.35561833e-01 -1.27958968e-01  1.21216454e-01 -1.82325989e-01
   1.78552270e-02 -1.47270933e-01 -5.45961559e-02  1.84509140e-02
   2.31125146e-01  4.21045907e-02  1.12458110e-01 -6.01880625e-02
  -1.83621451e-01  8.58220458e-02  1.75738186e-01  5.97955525e-01
   6.22368976e-02 -1.68375857e-02 -5.90385124e-02 -3.51525784e-01
   1.82771280e-01  1.70555845e-01  4.07542624e-02 -1.73033088e-01
   1.25022277e-01 -3.62482011e-01 -8.69801175e-03 -2.62570858e-01
  -1.39766484e-01 -2.21496239e-01 -2.32109800e-01 -3.88743170e-02
  -2.17016451e-02 -3.77012819e-01  1.15841076e-01 -3.05227399e-01
  -3.74134004e-01  6.61012232e-02 -3.23208362e-01  1.28341511e-01
   1.83274716e-01  2.21667781e-01 -9.24167782e-02  5.58754392e-02
  -8.51164088e-02  1.48867602e-02 -6.78050220e-02  2.09358726e-02
  -6.43706918e-02 -9.59983170e-02 -1.95499986e-01  7.13364854e-02
   2.12394953e-01  9.91433393e-03 -1.68507800e-01  5.31008184e-01
  -2.47637942e-01 -1.05782449e-01 -1.55111521e-01 -7.71865845e-02]
 [-1.82801694e-01 -5.72238564e-02 -1.43222392e-01  1.09244116e-01
   9.90176667e-03 -3.25825393e-01 -2.55655195e-03  8.87835696e-02
   9.48713999e-03  2.27035023e-03  1.20169021e-01 -5.77436462e-02
  -1.39009073e-01  4.00389582e-02  6.67966455e-02 -4.36317809e-02
   1.32000238e-01  5.35429567e-02 -6.66279569e-02  1.28216177e-01
   1.11415513e-01 -9.61862653e-02 -2.63978809e-01 -7.00861681e-03
  -3.42067629e-02  1.60498157e-01 -3.36465091e-01 -7.86475688e-02
   2.19670366e-02 -2.27825239e-01  2.71520447e-02 -5.99679388e-02
   3.76214795e-02 -7.32258952e-04  1.29262283e-02  1.39058843e-01
   3.56924720e-02  2.69750524e-02 -9.28961113e-02 -2.46849302e-02
   2.67690197e-02 -6.86156154e-02  7.55545944e-02 -2.28830218e-01
  -5.33985868e-02  5.54612949e-02 -4.95857447e-02  4.94952016e-02
   2.14584142e-01 -2.40015864e-01  7.41340965e-02 -3.38411238e-03
   6.52460307e-02  6.45209104e-02  6.02291413e-02 -5.12949638e-02
   4.79161413e-03 -1.50530204e-01  5.91761805e-02  1.26684979e-01
  -1.68922096e-01  1.88808441e-01 -4.83400747e-02  6.12010062e-02
  -3.47476304e-02 -8.21182784e-03  1.12989523e-01 -5.67459874e-02
  -2.36306965e-01 -2.08696365e-01 -3.46996188e-02 -7.39826337e-02
  -3.43334675e-02 -1.21776409e-01 -1.44420579e-01 -1.86986029e-01
  -5.70856333e-02  9.71792638e-02 -8.92293304e-02 -8.76479745e-02
  -6.16790131e-02 -2.75575727e-01 -1.03208065e-01  1.67105898e-01
  -1.92615725e-02  1.76711917e-01 -8.76297206e-02  1.06163926e-01
   5.43400422e-02  1.50156707e-01  1.34218946e-01 -9.78715122e-02
   4.07586433e-02 -1.44283339e-01 -3.01441979e-02 -2.64626704e-02
  -9.45480168e-02 -2.42669042e-02  1.05505036e-02  1.25366887e-02
  -1.31313130e-01 -3.37192416e-01  1.13316141e-01 -1.58547848e-01
   3.03041805e-02 -1.89351469e-01  4.50214408e-02 -1.21939383e-01
  -9.47674438e-02 -1.29349560e-01  1.68494165e-01 -2.62701660e-01
  -2.76910588e-02 -1.37963638e-01  7.66588226e-02  2.07570643e-04
   1.67070031e-01 -5.81737421e-02 -6.82922127e-03  3.29186805e-02]
 [ 1.19494565e-01  3.22874546e-01  1.22556686e-01  6.44538924e-02
   1.98717695e-03 -8.59513134e-02  1.77567169e-01 -1.81799799e-01
   2.85240114e-02  2.52951756e-02 -1.29950032e-01 -1.21895567e-01
   1.69818625e-01  1.17597364e-01  2.12346256e-01 -3.55893560e-02
   7.42916763e-02  1.33283779e-01  4.72578704e-02  1.56944200e-01
   1.40101900e-02  1.86765596e-01  6.95372745e-02  9.81882140e-02
   9.41677671e-03  4.23888825e-02 -4.06946957e-01 -9.83836874e-02
   3.01288757e-02  3.45459990e-02 -2.27332175e-01 -2.89932549e-01
  -3.14174414e-01 -1.24590673e-01 -1.01679906e-01 -2.03442797e-01
   2.40854144e-01  1.62364393e-02 -1.40209571e-01  8.45206203e-04
   1.52938321e-01  5.98834157e-02  1.78742096e-01 -1.83212131e-01
  -7.87025541e-02 -1.37311324e-01 -1.46864746e-02  2.54473478e-01
   2.84994751e-01  1.98869810e-01 -6.53840825e-02 -1.37717808e-02
  -1.37738287e-01  1.75466821e-01  2.38196015e-01  1.75890788e-01
  -4.65321876e-02 -1.58688933e-01 -2.12155491e-01  1.62523359e-01
  -1.35614365e-01  4.38329913e-02  8.89441147e-02 -2.59414166e-01
  -2.73990124e-01 -1.44950539e-01 -3.84557918e-02  2.14718729e-01
   8.42448175e-02 -2.42497232e-02  1.73112005e-01  1.95652798e-01
  -2.57696267e-02  4.13506553e-02  1.99356541e-01  2.42229268e-01
  -2.33268708e-01 -1.36436298e-01 -9.51166973e-02 -2.68127292e-01
   7.92950243e-02  8.52321908e-02 -1.69573328e-03 -1.44779786e-01
   3.67612541e-02  6.04384653e-02  2.48121079e-02  3.25194627e-01
  -7.13256449e-02 -3.97764668e-02 -2.04241142e-01 -1.11141503e-01
  -1.75853103e-01 -4.41065580e-01  5.44210672e-02  1.83991089e-01
  -2.93813676e-01 -9.33519080e-02 -6.17146604e-02  6.45153318e-03
  -2.26650730e-01  1.37121350e-01 -5.49850464e-02 -3.38803262e-01
  -2.22912163e-01 -1.39075220e-01  2.78332662e-02 -2.32759461e-01
   5.28631778e-03 -1.49594426e-01 -2.26082638e-01 -1.14699796e-01
   1.28322795e-01 -1.35492027e-01  1.02882937e-01  2.02507004e-01
  -2.29631394e-01 -1.05611660e-01  2.67247170e-01 -2.73281664e-01]
 [-1.73919760e-02  2.62200776e-02  1.09444618e-01  8.89285654e-03
  -1.74602076e-01  7.62140229e-02 -2.14106575e-01  8.43468960e-03
   8.45142081e-02  6.12741150e-02 -4.81812283e-03 -6.65445998e-02
  -1.27616271e-01 -8.58234465e-02 -1.81020051e-01  1.72122736e-02
  -1.89294145e-01 -1.51288193e-02  2.51989961e-01 -1.80198178e-01
  -1.26226753e-01  4.59627882e-02 -1.06121436e-01 -1.03218928e-01
  -2.66342193e-01 -5.23950681e-02 -1.15068004e-01 -6.16802685e-02
  -9.29781869e-02  7.61527196e-03 -1.34223536e-01  1.05924485e-02
   3.75881568e-02 -2.12981433e-01 -3.00811559e-01  9.13951546e-02
  -1.59839168e-01  1.32250749e-02  8.65203440e-02 -2.37156495e-01
  -3.02021265e-01  1.13669537e-01  2.78162628e-01  2.61195958e-01
   1.26705378e-01 -1.72560737e-02 -1.57890007e-01 -4.83740643e-02
  -1.47799268e-01 -1.22032285e-01 -1.44383043e-01 -1.81186303e-01
  -7.89727494e-02 -1.50022015e-01 -1.00897186e-01  1.57520492e-02
  -2.47302517e-01  5.15523106e-02  1.38194576e-01 -1.10549644e-01
  -2.03021675e-01 -8.54240507e-02 -2.92256206e-01 -2.89577574e-01
  -4.04952802e-02 -1.30510390e-01 -2.71893561e-01 -7.17905238e-02
  -4.52067368e-02  4.36938964e-02 -1.73827276e-01  1.80518478e-02
  -1.40582919e-01 -3.53281051e-02 -1.03772648e-01  1.18336953e-01
  -1.48899898e-01  8.14881399e-02  6.01645783e-02 -1.58789814e-01
  -5.05204126e-02 -6.47857636e-02 -2.12215744e-02  1.06118776e-01
  -2.07760688e-02 -4.34425697e-02 -5.16581237e-02 -1.58403039e-01
  -2.09013507e-01  1.66085307e-02  6.61024526e-02 -3.04102659e-01
   1.93953887e-01 -4.44746725e-02 -7.55524337e-02 -9.23655331e-02
   1.35903498e-02 -1.72577873e-01 -3.88098918e-02 -5.72041161e-02
   8.74113366e-02 -1.93569753e-02 -3.00035238e-01  1.75312702e-02
  -2.83110924e-02 -7.77570903e-02 -1.19413979e-01  3.25159612e-03
   1.32818520e-01 -2.82528341e-01  6.83557009e-03 -7.32288286e-02
   6.45879954e-02  1.71912704e-02 -1.13435863e-02 -1.08005315e-01
  -5.50587587e-02 -1.87738165e-01 -1.08256869e-01  2.76043266e-02]
 [-1.54962152e-01 -2.12991759e-01  3.02743375e-01 -1.65700316e-01
  -2.50599653e-01  9.48330835e-02 -3.53610158e-01 -7.65937045e-02
   3.24043036e-02  2.40058884e-01  5.07791527e-03 -1.18093222e-01
  -4.39680248e-01 -9.61306319e-02 -1.71715721e-01  1.07542016e-01
  -1.72981292e-01  1.77235026e-02  9.58725065e-02 -1.41452864e-01
  -1.73013613e-01  6.28721416e-02 -1.87048063e-01 -2.71068573e-01
  -1.88184887e-01  8.79433006e-02 -1.07353693e-02 -5.13976254e-02
  -2.02028841e-01  2.61908919e-01 -8.17202628e-02 -5.95753379e-02
  -6.70023933e-02 -3.51884216e-01 -2.23127410e-01  3.27886611e-01
  -3.63934457e-01 -3.36679891e-02  6.08040728e-02 -3.53604317e-01
  -2.41483375e-01  2.44931817e-01  2.04242691e-01  2.77104348e-01
  -1.45193651e-01 -3.23249586e-02 -2.36663818e-01 -8.65916312e-02
  -6.09070808e-02 -4.03991640e-01 -1.66860133e-01 -1.28572553e-01
  -3.11747551e-01 -2.63177324e-02  2.61958595e-02  1.24722704e-01
  -1.64197639e-01  1.20372690e-01  3.65858912e-01 -6.04461059e-02
  -2.81862289e-01  2.12972730e-01 -3.61301154e-01 -3.43163699e-01
  -1.98505655e-01 -4.69636209e-02 -1.94691896e-01 -4.24601704e-01
  -1.74072534e-02  6.46243319e-02 -1.14005566e-01 -1.81988016e-01
  -3.42011809e-01 -1.29428715e-01 -1.29575014e-01 -4.58495498e-01
  -1.92268461e-01  1.89252123e-01  2.90353503e-02 -1.85897872e-01
  -2.12280497e-01 -1.55322060e-01 -5.92373796e-02  1.02570526e-01
  -2.56416462e-02  7.72979436e-03 -3.46189514e-02  6.26248419e-02
  -2.22374182e-02  3.83773334e-02 -9.38618928e-02 -3.09439272e-01
   1.77989945e-01 -1.29196033e-01 -1.99854881e-01 -3.43373641e-02
  -3.13542485e-02 -1.68043226e-01  2.23560080e-01 -2.95792699e-01
  -6.54681772e-02 -1.83758035e-01 -9.02068987e-02  1.32785931e-01
  -1.03748515e-02 -1.10362247e-01  3.14119905e-02  8.98375288e-02
   9.31996182e-02 -2.61523604e-01 -6.98180720e-02 -9.04122740e-02
  -9.69320834e-02 -2.57689599e-02 -4.88149598e-02 -4.09353584e-01
  -1.85958594e-01 -9.48103666e-02 -1.20115995e-01 -7.60931447e-02]
 [ 1.41660765e-01  1.16615310e-01  9.01846215e-02  8.68415609e-02
  -3.08928192e-01  2.20509712e-02  1.39750540e-01 -9.58797708e-02
   1.13851413e-01  2.50200406e-02 -5.82864974e-03  9.87127200e-02
   1.16380595e-01 -7.33610541e-02 -2.25015268e-01  7.00317770e-02
  -2.07314819e-01 -1.36038586e-01  1.21098675e-01 -1.49749815e-01
  -9.39807817e-02  6.66879788e-02 -6.76443577e-02 -8.96744728e-02
  -3.46212164e-02 -1.01708882e-01 -1.52539939e-01 -2.30931677e-03
   6.57761618e-02 -1.16157442e-01 -8.83301198e-02  3.83760557e-02
   4.82554361e-02 -2.56170571e-01 -1.43990099e-01 -3.73971462e-02
   3.21251824e-02 -8.04456100e-02  2.50329375e-02 -1.25721544e-01
  -1.15842029e-01 -2.22215299e-02  1.98222369e-01  2.42774799e-01
   4.64894213e-02 -1.75732866e-01 -1.69757351e-01 -1.24346605e-02
  -1.69223726e-01  1.09132968e-01 -1.38096571e-01 -7.87303150e-02
  -5.62187098e-02 -2.13289827e-01 -2.31712610e-02  3.01586073e-02
  -2.13839456e-01  1.38475642e-01 -1.82153308e-03 -9.54608545e-02
   4.29992564e-02 -2.13147923e-02 -2.00055331e-01 -3.31396073e-01
